<?xml version="1.0"?>
<opencv_storage>
<opencv_ml_svm>
  <format>3</format>
  <svmType>C_SVC</svmType>
  <kernel>
    <type>LINEAR</type></kernel>
  <C>1.</C>
  <term_criteria><iterations>100</iterations></term_criteria>
  <var_count>32</var_count>
  <class_count>10</class_count>
  <class_labels type_id="opencv-matrix">
    <rows>10</rows>
    <cols>1</cols>
    <dt>i</dt>
    <data>
      0 1 2 3 4 5 6 7 8 9</data></class_labels>
  <sv_total>45</sv_total>
  <support_vectors>
    <_>
      -1.30638495e-01 8.33092868e-01 1.13557923e+00 3.56406271e-02
      -2.86907613e-01 -3.98105890e-01 -1.82196781e-01 2.43856356e-01
      -4.83518466e-02 -4.31405872e-01 -3.75876486e-01 -6.97426498e-02
      -4.20776308e-01 3.44692916e-01 3.86494726e-01 -6.35354877e-01
      1.87367427e+00 -6.23353958e-01 -9.25376832e-01 -3.24943542e-01
      -8.86674285e-01 3.48273993e-01 9.64000702e-01 -4.25600529e-01
      -1.53997576e+00 -9.98738348e-01 1.74409803e-02 1.23287952e+00
      -5.55841148e-01 -6.94479287e-01 -1.38758504e+00 1.38758492e+00</_>
    <_>
      -3.89768511e-01 1.26534200e+00 1.26992869e+00 -8.23432982e-01
      -1.09004535e-01 3.53124291e-01 -7.31051505e-01 -3.13304275e-01
      -1.04497440e-01 -2.44340286e-01 -7.69908071e-01 1.55053511e-01
      -4.47889984e-01 -1.04104698e-01 1.40989363e+00 -4.16039914e-01
      1.32206929e+00 -8.00236046e-01 -9.63692188e-01 4.41859156e-01
      -1.05116045e+00 1.27002132e+00 1.17886281e+00 -1.39772367e+00
      -1.22259223e+00 -2.24671483e+00 1.11969328e+00 -5.97860038e-01
      -9.00832415e-01 3.78999203e-01 -1.39217567e+00 1.39217579e+00</_>
    <_>
      -2.94664443e-01 1.41253924e+00 1.50125003e+00 -4.89394724e-01
      1.92187652e-02 -2.54071027e-01 2.82101452e-01 1.73188318e-02
      -6.87322542e-02 -1.17914498e+00 -2.23398089e-01 1.16322868e-01
      -4.05440599e-01 2.80949861e-01 -3.58313024e-01 -3.56541961e-01
      2.12972999e+00 6.45680055e-02 -1.35495245e+00 -8.39345694e-01
      -7.49618471e-01 2.60273010e-01 1.20164037e+00 -7.12295055e-01
      -1.12867546e+00 -1.79187882e+00 8.83022547e-01 1.31127560e+00
      -1.37236798e+00 -8.21930289e-01 -1.37451267e+00 1.37451243e+00</_>
    <_>
      4.00567144e-01 5.25505781e-01 -4.40230995e-01 1.30306304e-01
      2.77622223e-01 -6.60950661e-01 -2.94357747e-01 6.91017687e-01
      -7.69380555e-02 -1.96730718e-01 -7.61479318e-01 1.02139458e-01
      4.84839752e-02 6.48130834e-01 7.32617527e-02 -4.66347635e-01
      6.16148174e-01 1.33314710e-02 -9.33008671e-01 3.03528875e-01
      6.49735272e-01 3.15955281e-01 -1.42280626e+00 4.57115740e-01
      -1.48821056e+00 -3.12298179e-01 5.42744517e-01 8.67352486e-02
      4.22946006e-01 -1.05242586e+00 -1.91351855e+00 1.91351819e+00</_>
    <_>
      -8.11346054e-01 1.35551974e-01 1.95217168e+00 -5.46459794e-01
      -6.56266958e-02 -1.37218761e+00 6.17680311e-01 9.72572831e-04
      1.95360065e-01 -1.21617949e+00 3.32554281e-01 8.20674226e-02
      -3.05396616e-01 1.69302344e+00 -4.04433966e-01 -2.87751436e-01
      7.29917645e-01 -8.19161415e-01 -6.06197774e-01 6.95441246e-01
      -9.87009287e-01 -7.59791672e-01 2.49797225e+00 -7.51171350e-01
      -2.13873076e+00 -1.45035565e+00 -2.11360836e+00 2.02436471e+00
      3.66807312e-01 -2.77563632e-01 -1.63813257e+00 1.63813210e+00</_>
    <_>
      5.09325862e-01 -3.21143031e-01 -5.79315722e-01 -3.57701898e-01
      9.07769501e-02 -1.93280339e+00 3.03941935e-01 3.16821635e-01
      4.50298011e-01 -1.90350354e+00 5.44488311e-01 6.44935906e-01
      -1.82193011e-01 3.41772199e+00 -2.00367033e-01 -8.01282942e-01
      -7.48834789e-01 -1.22126269e+00 -2.63781279e-01 2.23387909e+00
      8.68207872e-01 -7.39727855e-01 6.87473565e-02 -1.97227404e-01
      -1.68027210e+00 -2.13945651e+00 -1.65384352e+00 -3.16254079e-01
      1.78232348e+00 1.87774256e-01 -2.98787665e+00 2.98787618e+00</_>
    <_>
      -3.29936504e-01 6.28165245e-01 3.68592501e-01 -2.06222534e-01
      1.11109558e-02 -1.63675472e-02 -2.29359418e-01 -1.02383152e-01
      -2.36290216e-01 -4.42136437e-01 -2.62623131e-01 5.31082630e-01
      -7.70057738e-01 1.84454918e-01 6.59197807e-01 2.12772593e-01
      4.60598677e-01 -3.36999178e-01 -4.09967184e-01 2.86367565e-01
      -1.32517362e+00 3.54116172e-01 5.35807788e-01 4.35249507e-01
      -3.96154612e-01 -1.64777613e+00 2.92972177e-01 -1.69372588e-01
      -1.26402950e+00 1.14042985e+00 -9.50486481e-01 9.50486302e-01</_>
    <_>
      -6.00405514e-01 1.06316340e+00 3.02704215e-01 -6.51561618e-01
      5.22278190e-01 -1.49852288e+00 3.36564556e-02 4.67366129e-01
      6.18821442e-01 -1.09011710e+00 -4.59756494e-01 6.27254367e-01
      -3.66738379e-01 1.36999869e+00 3.04245442e-01 -6.42386317e-01
      1.13900326e-01 -4.75222051e-01 -3.03797752e-01 6.65119350e-01
      1.73955828e-01 -1.55477718e-01 1.80849507e-01 -1.99327514e-01
      -3.20107126e+00 -2.07476068e+00 -5.13486803e-01 1.52165174e-01
      5.31964719e-01 -1.70642957e-01 -3.01473999e+00 3.01473999e+00</_>
    <_>
      -7.95325458e-01 -3.66038918e-01 2.58639479e+00 3.22091043e-01
      2.45928898e-01 2.77534068e-01 -1.30543494e+00 3.96468759e-01
      2.52487034e-01 2.78209835e-01 -1.64251924e+00 4.34015363e-01
      -5.76320052e-01 -5.36353111e-01 -8.07671994e-02 5.09629130e-01
      1.74712157e+00 -3.85503024e-01 -6.77807033e-01 -6.83811307e-01
      -8.73229444e-01 -3.46648246e-01 -4.42326516e-01 1.66220427e+00
      -1.65068138e+00 -1.28145409e+00 -6.37901425e-01 1.99951982e+00
      -5.81976414e-01 -7.79641986e-01 -2.39221025e+00 2.39221001e+00</_>
    <_>
      -3.77619892e-01 -6.02870136e-02 -4.25683498e-01 -7.96364665e-01
      3.73383641e-01 1.71549249e+00 -8.97802830e-01 -6.59111381e-01
      -1.72041222e-01 5.29333830e-01 3.59064281e-01 6.74571335e-01
      -3.74059409e-01 -1.32652426e+00 9.09261405e-01 5.28387308e-01
      -1.65995491e+00 5.31961799e-01 1.39092815e+00 -2.62934893e-01
      -5.50336778e-01 8.58015060e-01 -5.51606491e-02 -2.52517402e-01
      2.22532415e+00 -1.53889322e+00 1.65096915e+00 -2.77896237e+00
      -1.34329104e+00 2.47128439e+00 1.70608771e+00 -1.70608759e+00</_>
    <_>
      -8.94597530e-01 1.27809393e+00 -2.11830199e-01 -1.77848339e+00
      1.12944424e+00 -1.21757960e+00 1.78761959e+00 -1.09765124e+00
      -1.25520098e+00 -8.86719048e-01 2.87680840e+00 8.25737059e-01
      9.85870063e-02 1.49060202e+00 -3.28725410e+00 1.14242399e+00
      -1.60681713e+00 6.01832747e-01 1.56062531e+00 -5.55640936e-01
      -9.21767235e-01 6.64397299e-01 1.16534364e+00 -9.07973588e-01
      1.90705526e+00 -7.78995752e-01 2.95360982e-01 -1.30034506e+00
      -5.52731037e-01 1.55771542e+00 2.56012917e+00 -2.56012869e+00</_>
    <_>
      5.87264419e-01 -2.88601041e-01 -2.35822654e+00 3.15301985e-01
      1.06359851e+00 -3.55966657e-01 -7.43304849e-01 9.65285182e-01
      -5.15405118e-01 7.39554524e-01 5.63217691e-05 4.72041279e-01
      2.44983569e-01 4.46979582e-01 -7.44853139e-01 1.71291932e-01
      -1.74426126e+00 9.29612100e-01 6.96246982e-01 1.18401937e-01
      1.38044155e+00 5.41966379e-01 -3.84632826e+00 1.92392027e+00
      4.02645916e-01 5.56535244e-01 1.00629532e+00 -1.82094431e+00
      9.16112542e-01 -1.01463549e-01 -3.59660596e-01 3.59660715e-01</_>
    <_>
      -7.36707389e-01 -1.65967917e+00 -1.37191430e-01 -3.23386163e-01
      5.76334357e-01 -7.79848814e-01 1.36495340e+00 -6.30842090e-01
      4.39106315e-01 3.01590204e-01 9.45158541e-01 3.46119285e-01
      2.62074452e-02 6.25390172e-01 -1.62756169e+00 1.27035701e+00
      -2.85696387e+00 5.30596793e-01 2.03197432e+00 2.94392914e-01
      3.04940850e-01 -1.51254737e+00 5.45358896e-01 6.62248015e-01
      6.98959529e-01 1.36936486e+00 -2.59990096e+00 2.73533672e-01
      1.39229405e+00 9.34073269e-01 1.83185327e+00 -1.83185339e+00</_>
    <_>
      5.74839294e-01 -1.15546870e+00 -2.09956980e+00 -1.07138520e-02
      7.82847166e-01 -5.05588531e-01 6.33497655e-01 -7.58791715e-02
      1.48789212e-01 1.81959778e-01 8.88525784e-01 3.86759073e-01
      3.11486989e-01 3.39832604e-01 -1.01191306e+00 6.10595644e-01
      -2.69091296e+00 8.34877133e-01 1.60603392e+00 2.50002176e-01
      1.81796277e+00 -1.13926482e+00 -1.58945942e+00 9.10761595e-01
      1.56837213e+00 1.11623061e+00 -3.03370684e-01 -1.55266523e+00
      9.82068717e-01 8.73967409e-01 1.19839466e+00 -1.19839478e+00</_>
    <_>
      -5.77999771e-01 2.12365538e-01 -8.87496471e-02 2.01033667e-01
      -1.36921490e-02 6.66961610e-01 -3.01378369e-01 -7.64533281e-01
      -2.97659159e-01 -3.17672700e-01 -1.59737945e-01 1.08467424e+00
      -9.86580968e-01 -1.13288492e-01 5.76444685e-01 8.79812717e-01
      -2.53350198e-01 -4.12642241e-01 3.09604406e-01 3.56388003e-01
      -1.87593198e+00 4.48366016e-01 2.65786927e-02 1.40098739e+00
      8.09036672e-01 -1.40459836e+00 2.87635207e-01 -9.53627646e-01
      -1.71520138e+00 2.38119364e+00 -1.11827299e-01 1.11827224e-01</_>
    <_>
      -2.10977688e-01 -7.36269832e-01 -2.47843170e+00 -9.29820389e-02
      1.40502262e+00 -6.88414633e-01 1.63179398e-01 1.17684677e-01
      3.95702481e-01 -3.47886384e-01 1.52751994e+00 9.93565440e-01
      -1.32530510e-01 4.62594241e-01 -1.26449072e+00 8.86714697e-01
      -3.51866102e+00 9.97471929e-01 2.56890130e+00 -4.77121845e-02
      1.45721710e+00 -1.30997670e+00 -2.05222321e+00 1.90498281e+00
      1.51484227e+00 -4.10219461e-01 -2.30639383e-01 -2.29054976e+00
      3.77879918e-01 2.14330935e+00 6.54398322e-01 -6.54397905e-01</_>
    <_>
      -3.15707386e-01 -1.97375262e+00 -5.18441796e-01 1.46300986e-01
      6.31755948e-01 7.90011227e-01 -6.76136613e-01 -4.38969374e-01
      1.30762488e-01 1.54657090e+00 -8.62415195e-01 9.99753237e-01
      -3.39338109e-02 -1.45381391e+00 5.20389415e-02 1.97597706e+00
      -2.66160083e+00 3.06661099e-01 1.81467116e+00 5.40268421e-01
      4.12877202e-01 -1.09098446e+00 -2.00495481e+00 2.68306184e+00
      1.58786571e+00 9.82801437e-01 -8.67693126e-01 -1.48724675e+00
      1.89585671e-01 2.16535401e+00 7.98030198e-01 -7.98030138e-01</_>
    <_>
      1.78272426e-01 2.01008707e-01 1.01124793e-01 3.39007616e-01
      3.24898481e-01 -1.65350890e+00 2.28435779e+00 8.20394158e-01
      -2.24683926e-01 -1.52407753e+00 9.02349651e-01 -2.46004656e-01
      1.46969795e-01 1.33639753e+00 -3.37911034e+00 3.92604411e-01
      8.19413483e-01 1.77614141e+00 -1.09241641e+00 -1.50313854e+00
      4.25456703e-01 -1.64018011e+00 -9.12783369e-02 1.30600142e+00
      -1.80282384e-01 1.24625766e+00 -9.49329197e-01 3.54488420e+00
      -2.65394062e-01 -2.33016109e+00 9.12097935e-03 -9.12145525e-03</_>
    <_>
      7.89280117e-01 -2.56062210e-01 -1.13490427e+00 6.67479336e-01
      5.61642170e-01 -1.01345468e+00 3.02054882e-01 9.99610662e-01
      -1.34956330e-01 1.39496028e-01 -4.21816379e-01 -2.06739940e-02
      1.22434303e-01 5.90550423e-01 -9.98031676e-01 -1.92648336e-01
      6.57929480e-02 8.49852920e-01 -4.37950641e-01 -4.77695286e-01
      1.33840024e+00 -5.39470375e-01 -2.25269747e+00 1.45376766e+00
      -8.38639319e-01 1.23146462e+00 8.14053193e-02 8.34240675e-01
      7.17524409e-01 -1.63317037e+00 -9.93720114e-01 9.93719935e-01</_>
    <_>
      -3.97449769e-02 -1.34077477e+00 -2.16796651e-01 2.81050086e-01
      2.35688835e-01 -1.60234189e+00 1.39127469e+00 4.28294063e-01
      4.82908040e-01 -3.42430204e-01 1.00274754e+00 1.61311477e-02
      -2.55592843e-03 1.22749221e+00 -1.82059669e+00 2.99654573e-01
      -1.31626630e+00 4.52915728e-01 1.15935647e+00 -2.96005964e-01
      6.76295757e-01 -2.05805445e+00 3.56628835e-01 1.02512968e+00
      -3.39684814e-01 1.32733870e+00 -2.74717283e+00 1.88382220e+00
      1.36541402e+00 -5.02063394e-01 4.49250072e-01 -4.49250460e-01</_>
    <_>
      6.29387438e-01 -1.44738972e+00 -1.50166702e+00 8.78756940e-01
      3.54351640e-01 -1.45444560e+00 1.14445508e+00 4.58782583e-01
      3.29115182e-01 -5.49615771e-02 1.06180036e+00 2.52575483e-02
      2.09625348e-01 1.12275469e+00 -1.81251442e+00 5.66913448e-02
      -1.44091237e+00 5.03143847e-01 1.36121142e+00 -4.23442960e-01
      1.52247953e+00 -1.83404207e+00 -1.10792601e+00 1.41948855e+00
      2.93433577e-01 2.17787576e+00 -1.91809618e+00 9.80327547e-01
      1.60653365e+00 -6.68765128e-01 6.96848273e-01 -6.96848691e-01</_>
    <_>
      -2.41502434e-01 -1.67959258e-02 2.36406207e-01 6.34565234e-01
      -1.94383353e-01 -4.17784423e-01 4.67882276e-01 -4.07975972e-01
      -7.31870770e-01 -5.58191061e-01 -2.73984194e-01 1.26993883e+00
      -1.68521309e+00 8.67398500e-01 4.77160700e-02 1.00379395e+00
      6.12673044e-01 -5.52261531e-01 -2.94107348e-01 2.33695388e-01
      -2.85296965e+00 -1.25372857e-01 4.78020370e-01 2.50032210e+00
      7.05228969e-02 -1.14095676e+00 -8.70466113e-01 9.30877626e-01
      -2.10787654e+00 2.04746461e+00 -7.82077312e-01 7.82077193e-01</_>
    <_>
      6.51096940e-01 -9.64825630e-01 -1.54394090e+00 7.20059872e-01
      5.00822127e-01 -2.36948133e+00 1.45219576e+00 9.58715618e-01
      5.12557268e-01 -2.66071528e-01 7.28250027e-01 3.47063422e-01
      1.91462785e-01 1.46235120e+00 -2.28255248e+00 -9.77029502e-02
      -1.13760972e+00 5.42252004e-01 1.32179928e+00 -7.26441562e-01
      1.85593903e+00 -2.13802743e+00 -1.64604771e+00 1.92813599e+00
      -1.08783734e+00 2.09764695e+00 -2.18238783e+00 1.58703029e+00
      1.90029979e+00 -1.30494201e+00 -4.55107421e-01 4.55107182e-01</_>
    <_>
      1.46439761e-01 -1.90310693e+00 -1.17049873e-01 1.01160407e+00
      3.34190935e-01 -6.10795856e-01 3.52068692e-01 4.22410697e-01
      2.51209766e-01 7.38323689e-01 -5.06349981e-01 4.40469652e-01
      2.77610179e-02 -1.97524622e-01 -1.41162455e+00 1.02197361e+00
      -8.62113059e-01 4.97874498e-01 9.23653185e-01 -5.59414625e-01
      7.59601355e-01 -1.97310388e+00 -1.68295574e+00 2.89645815e+00
      5.12675457e-02 2.12975764e+00 -2.03327227e+00 1.66903353e+00
      8.19769859e-01 -4.55531329e-01 -2.67534908e-02 2.67528147e-02</_>
    <_>
      9.74290669e-01 -4.47888672e-01 -1.60201132e+00 8.17138135e-01
      6.14169359e-01 -3.49959463e-01 -1.00684500e+00 1.03548789e+00
      -1.83511209e-02 4.55423951e-01 -6.86160862e-01 2.00834684e-02
      5.69246598e-02 4.70293500e-02 1.89997405e-01 -9.93285105e-02
      -2.58471191e-01 2.92852730e-01 -2.29004532e-01 1.94622874e-01
      1.62703347e+00 -2.95394748e-01 -3.10501957e+00 1.77338099e+00
      -1.61158219e-01 3.22641730e-01 7.90611863e-01 -7.56230295e-01
      5.41026771e-01 -5.75408459e-01 -1.58754134e+00 1.58754134e+00</_>
    <_>
      -5.03656030e-01 -2.51731181e+00 -8.84676799e-02 3.64604741e-01
      -1.02897353e-01 -5.72743475e-01 2.50683844e-01 -2.96461314e-01
      1.36189187e+00 9.11756337e-01 1.84018016e-01 8.25674385e-02
      -1.02756396e-01 4.57450420e-01 -1.93952117e-02 5.90716422e-01
      -2.74483061e+00 -7.21418202e-01 2.54023385e+00 9.26015198e-01
      6.52582169e-01 -1.72084832e+00 3.26839030e-01 7.41427243e-01
      -3.01664948e-01 1.42428851e+00 -3.69660854e+00 2.30359524e-01
      2.62834215e+00 8.37906957e-01 7.73714721e-01 -7.73714840e-01</_>
    <_>
      7.44119465e-01 -1.67696261e+00 -2.16320539e+00 5.76856077e-01
      2.90182769e-01 -5.31165540e-01 -3.44209582e-01 1.33919464e-02
      5.15877724e-01 8.83741021e-01 5.62633038e-01 1.79756179e-01
      5.30094393e-02 4.97566491e-01 3.27081889e-01 7.13269413e-02
      -2.51919246e+00 -5.71800351e-01 2.14200807e+00 9.48984742e-01
      1.60318935e+00 -8.26820672e-01 -1.61769986e+00 8.41331124e-01
      8.46913993e-01 1.16939688e+00 -1.17382598e+00 -1.91716695e+00
      1.95019484e+00 1.14079821e+00 5.70998847e-01 -5.70999086e-01</_>
    <_>
      -4.18312371e-01 8.15954804e-02 -3.26253511e-02 3.50659639e-01
      -2.25360453e-01 7.57968247e-01 -7.63706207e-01 -7.05677569e-01
      5.46299852e-02 1.78745359e-01 -7.73902655e-01 9.11938190e-01
      -1.08962905e+00 -4.18769687e-01 1.33017600e+00 7.62270629e-01
      -1.86825879e-02 -9.36776042e-01 3.71410877e-01 5.84047735e-01
      -1.67867208e+00 5.99539399e-01 -2.40058318e-01 1.31919086e+00
      3.28023791e-01 -1.32393050e+00 1.95890844e-01 -1.15134954e+00
      -1.27502346e+00 2.23048210e+00 -6.00895345e-01 6.00895405e-01</_>
    <_>
      1.60534695e-01 -1.20701599e+00 -2.25491929e+00 5.59516907e-01
      5.74690163e-01 -6.16764188e-01 -1.26924539e+00 3.46784890e-01
      1.31976914e+00 6.29310071e-01 4.55487549e-01 5.36645293e-01
      -1.55956730e-01 1.23055041e-01 8.62818003e-01 -6.47100285e-02
      -2.74188375e+00 -9.64534581e-01 2.94121218e+00 7.65206337e-01
      1.89903724e+00 -1.07141519e+00 -2.20585918e+00 1.37823713e+00
      -6.54519647e-02 -2.36375108e-01 -1.08855522e+00 -2.61786318e+00
      1.91617775e+00 1.79024076e+00 -8.01211953e-01 8.01212430e-01</_>
    <_>
      1.29154682e-01 -2.43434238e+00 -4.47933406e-01 8.28788996e-01
      1.20584644e-01 6.89833581e-01 -1.47332764e+00 1.19105943e-01
      4.58603114e-01 1.88635373e+00 -9.82261419e-01 4.29521859e-01
      -1.85418818e-02 -1.22737050e+00 7.99554646e-01 1.12227619e+00
      -1.92433202e+00 -5.43803394e-01 1.79221725e+00 6.75918341e-01
      6.89800560e-01 -1.08552563e+00 -2.10396791e+00 2.49969316e+00
      9.59002972e-01 1.22327304e+00 -1.49476945e+00 -9.73366082e-01
      1.09904444e+00 1.36909127e+00 1.20598175e-01 -1.20598003e-01</_>
    <_>
      -1.04410970e+00 -4.44444329e-01 1.40254176e+00 -3.68504137e-01
      -2.10206196e-01 4.76554297e-02 8.94946575e-01 -8.22369218e-01
      2.68985063e-01 -2.03783244e-01 5.96748531e-01 -7.83476979e-02
      -2.79787302e-01 5.41920736e-02 -1.96244508e-01 3.82726878e-01
      -4.54516321e-01 -8.99734199e-02 5.83602607e-01 -3.91128808e-02
      -1.26511800e+00 -5.46380103e-01 2.69799232e+00 -8.86494160e-01
      -1.69788226e-02 4.28719185e-02 -1.65110469e+00 1.10661495e+00
      -1.60393357e-01 7.04883218e-01 1.33556724e+00 -1.33556724e+00</_>
    <_>
      -1.48859784e-01 -4.99085337e-01 4.09041941e-01 -5.50371230e-01
      1.00721546e-01 -5.43816924e-01 1.02319360e+00 -1.58844137e+00
      2.42724434e-01 -6.26112163e-01 1.77226555e+00 -4.43709046e-02
      2.99505860e-01 6.62724078e-02 -4.33875173e-01 5.21207571e-01
      -7.89274335e-01 -1.00834310e+00 1.34450698e+00 4.53110695e-01
      4.94092137e-01 -1.60274220e+00 2.77062607e+00 -1.66197586e+00
      1.60079634e+00 1.46216124e-01 -1.09104049e+00 -7.06577122e-01
      -1.76094081e-02 1.81522691e+00 1.62553000e+00 -1.62553012e+00</_>
    <_>
      -6.53913498e-01 2.48661935e-01 6.46572948e-01 -1.91757128e-01
      -4.01561499e-01 4.79553729e-01 -1.27902981e-02 -7.43362248e-01
      -6.90578371e-02 -1.82587430e-01 9.25928354e-02 5.20776331e-01
      -6.76743507e-01 -1.39740944e-01 6.56957567e-01 4.26399022e-01
      4.95642237e-02 -6.78160310e-01 3.61723870e-01 2.66872168e-01
      -1.80127645e+00 4.05887216e-01 1.38333309e+00 1.20559661e-02
      3.44632089e-01 -1.06387842e+00 -3.27259332e-01 -3.01336765e-01
      -1.06812966e+00 1.69672573e+00 3.76768857e-01 -3.76768917e-01</_>
    <_>
      -1.17255211e+00 -3.44014503e-02 1.09105825e+00 -6.74723327e-01
      -3.67669404e-01 1.68554515e-01 7.05562711e-01 -1.39598024e+00
      3.53053480e-01 -9.14309740e-01 1.44567752e+00 1.57128125e-01
      -1.51643142e-01 8.52622241e-02 2.09276065e-01 4.95706618e-01
      -7.90618479e-01 -8.89532566e-01 1.04154932e+00 6.38601840e-01
      -1.33881128e+00 -6.94894612e-01 3.45157433e+00 -1.41786873e+00
      9.37386572e-01 -1.03511357e+00 -1.40606844e+00 -2.74082690e-01
      -6.27637148e-01 2.30778837e+00 1.40548491e+00 -1.40548491e+00</_>
    <_>
      -9.50234234e-01 -1.29728699e+00 1.82315528e+00 -4.79422174e-02
      -6.10725999e-01 1.32809031e+00 -6.17862605e-02 -1.33380628e+00
      2.81424850e-01 6.91884577e-01 -3.78431082e-01 4.74242479e-01
      -1.76698342e-01 -1.54293597e+00 5.83017290e-01 1.21803272e+00
      -4.72308189e-01 -6.78228259e-01 1.06912088e+00 8.14156532e-02
      -1.45623386e+00 -8.20248127e-01 1.96595526e+00 3.10526669e-01
      1.21745765e+00 4.05457735e-01 -1.53015697e+00 3.79620522e-01
      -7.46324837e-01 1.89686143e+00 1.57975745e+00 -1.57975757e+00</_>
    <_>
      1.87638223e+00 1.18761562e-01 -3.39751291e+00 7.16574252e-01
      2.44547009e-01 3.27450752e-01 -8.09620976e-01 1.58408105e-01
      2.84540858e-02 4.62866575e-01 3.84240031e-01 1.71088979e-01
      7.98756555e-02 -4.08641547e-01 5.11664271e-01 -4.64538068e-01
      -6.85795009e-01 -7.92149305e-02 1.04664981e+00 -2.81639576e-01
      2.22925901e+00 5.00437558e-01 -3.31122971e+00 5.81533372e-01
      2.12353492e+00 4.49695587e-01 2.56714153e+00 -3.33215141e+00
      1.62554860e-01 6.02455199e-01 3.64936441e-01 -3.64936650e-01</_>
    <_>
      -1.76613912e-01 7.68146038e-01 -1.20491803e-01 6.12548366e-02
      8.46241193e-04 4.89463449e-01 -6.42786860e-01 -1.99047580e-01
      -3.32739264e-01 -1.91260874e-01 -4.33284014e-01 5.37552178e-01
      -7.24658310e-01 -2.81456232e-01 8.85200679e-01 3.59875441e-01
      5.32295108e-01 -3.51524860e-01 -4.19732034e-01 2.38961577e-01
      -1.23316538e+00 7.84892261e-01 -3.11361998e-01 7.59634852e-01
      2.39440933e-01 -1.49745131e+00 1.08184195e+00 -9.01071429e-01
      -1.53011477e+00 1.34934425e+00 -7.77868271e-01 7.77868211e-01</_>
    <_>
      8.30946386e-01 1.50653744e+00 -3.13679457e+00 4.06768411e-01
      9.64871883e-01 2.37178370e-01 -1.46335626e+00 6.83602989e-01
      3.04214805e-01 -6.06009960e-02 -9.28020477e-02 6.62265480e-01
      -2.01330498e-01 -9.74327445e-01 9.38565552e-01 -6.05739474e-01
      -3.92542332e-01 4.22296971e-01 8.13077390e-01 -8.42831790e-01
      1.89870274e+00 7.08787382e-01 -3.75438738e+00 1.14689767e+00
      3.69583160e-01 -1.31851923e+00 3.53953409e+00 -3.50977945e+00
      -9.32043791e-01 9.02289510e-01 -1.37958086e+00 1.37958157e+00</_>
    <_>
      5.81947982e-01 -4.37589228e-01 -3.23151171e-01 9.13859606e-01
      2.01395705e-01 1.94854176e+00 -2.27413416e+00 3.92020673e-01
      -2.66257465e-01 1.65256822e+00 -1.71860671e+00 5.22479534e-01
      -1.33645877e-01 -2.86132264e+00 8.94638598e-01 9.07255292e-01
      7.35067010e-01 2.67823964e-01 1.90183535e-01 -1.19307446e+00
      3.83440405e-01 3.02198023e-01 -3.42125344e+00 2.73561525e+00
      1.71913826e+00 1.58647686e-01 2.29429603e+00 -1.29140508e+00
      -1.60865760e+00 6.05766594e-01 -3.91630948e-01 3.91631097e-01</_>
    <_>
      -4.35497701e-01 6.98527038e-01 4.93280262e-01 -6.83501661e-02
      -1.21016115e-01 3.40916246e-01 -3.83043528e-01 -2.60614514e-01
      -3.77324998e-01 -3.53267074e-01 -4.44231391e-01 5.07698953e-01
      -6.80457830e-01 -1.07034154e-01 7.07573354e-01 4.82841581e-01
      6.87959433e-01 -4.23757941e-01 -6.67124450e-01 4.02922869e-01
      -1.61429679e+00 5.79142094e-01 3.73578697e-01 6.61575854e-01
      -5.59712499e-02 -1.48511863e+00 4.82929468e-01 -2.18727961e-01
      -1.51808405e+00 1.25388253e+00 -8.39625716e-01 8.39625716e-01</_>
    <_>
      -2.26772118e+00 1.94137537e+00 1.70160270e+00 -7.22374678e-01
      2.86136746e-01 9.62603688e-01 -9.11608517e-01 9.77298260e-01
      2.61801332e-01 -6.22047961e-01 -1.73430872e+00 1.04891217e+00
      -9.92446363e-01 -1.08669162e+00 1.17119932e+00 -1.37306089e-02
      6.52882338e-01 1.31443000e+00 -1.04564309e+00 -9.21669185e-01
      -2.71222949e+00 1.19523942e+00 2.26884842e-01 1.29010534e+00
      -3.05315685e+00 -3.24847746e+00 9.22394514e-01 1.04491794e+00
      -2.43938446e+00 4.72072512e-01 -2.30536151e+00 2.30536246e+00</_>
    <_>
      -1.01957321e+00 -6.24985754e-01 2.83580446e+00 3.98443758e-01
      1.06892757e-01 1.73061025e+00 -1.61357415e+00 9.30542201e-02
      -1.94267452e-01 1.65946960e+00 -2.35630250e+00 5.32663882e-01
      -2.15680927e-01 -2.80523014e+00 1.94210067e-01 1.27846539e+00
      1.58968925e+00 3.16983044e-01 -3.58436525e-01 -1.54823565e+00
      -1.32262874e+00 -4.01360765e-02 -9.39862072e-01 2.30262733e+00
      -3.66800040e-01 2.28658229e-01 1.92943856e-01 1.71372831e+00
      -1.55570900e+00 -3.50963354e-01 -5.79796731e-01 5.79797149e-01</_>
    <_>
      3.06028217e-01 -4.64999378e-01 -4.95541006e-01 1.18482232e-01
      3.24018985e-01 -6.57853663e-01 3.44115615e-01 5.23803174e-01
      5.92905402e-01 2.16603413e-01 4.13942367e-01 -7.42412269e-01
      9.38081741e-01 1.80863887e-01 -9.50055003e-01 -6.47983789e-01
      -5.36029935e-01 5.34084082e-01 4.81038839e-01 -4.79093164e-01
      2.16103435e+00 -7.25385785e-01 -6.87538028e-01 -7.48110652e-01
      -5.85866749e-01 1.61728311e+00 -4.92805809e-01 4.90860015e-01
      1.92845452e+00 -1.92650878e+00 3.16807628e-01 -3.16807747e-01</_>
    <_>
      4.05103624e-01 -1.29951358e+00 4.30164300e-02 1.88948765e-01
      1.52298510e-01 -1.80439666e-01 6.41693249e-02 4.55446839e-01
      4.06326771e-01 9.95644808e-01 -5.38818359e-01 -3.82107079e-01
      8.88551354e-01 -7.06954181e-01 -4.88149196e-01 -3.52422916e-03
      -6.62444830e-01 4.91475016e-01 4.81046170e-01 -3.10076267e-01
      1.85228026e+00 -1.19126272e+00 -9.19781804e-01 2.58764297e-01
      -3.17678601e-01 2.13731408e+00 -9.22551155e-01 7.51581252e-01
      1.58356881e+00 -1.41259885e+00 3.40555996e-01 -3.40555817e-01</_>
    <_>
      -3.03139519e-02 -2.38769531e+00 2.79107261e+00 1.01714826e+00
      -7.02053070e-01 2.59988022e+00 -1.61889422e+00 -5.36346138e-01
      -5.73329985e-01 2.60480905e+00 -2.87775731e+00 3.89263481e-01
      -1.08317688e-01 -2.93066263e+00 4.48619217e-01 1.91457772e+00
      1.39021158e+00 -2.57412970e-01 -4.57015008e-01 -6.75783277e-01
      -1.41401458e+00 -1.13668695e-01 -1.25695992e+00 2.78464317e+00
      1.60638666e+00 1.89474547e+00 -5.20182014e-01 1.65298057e+00
      -1.00750136e+00 -1.25297233e-01 7.08037794e-01 -7.08038151e-01</_></support_vectors>
  <uncompressed_sv_total>700</uncompressed_sv_total>
  <uncompressed_support_vectors>
    <_>
      4.20168079e-02 1.12044819e-01 1.12044819e-01 4.34173681e-02
      8.26330557e-02 1.68067235e-02 1.40056023e-02 9.52380970e-02
      7.70308152e-02 0. 1.96078438e-02 9.10364166e-02 4.20168079e-02
      1.20448180e-01 1.06442578e-01 2.52100844e-02 3.09523821e-01
      2.08683476e-01 1.87675074e-01 2.94117659e-01 2.43697494e-01
      2.49299735e-01 2.52100855e-01 2.54901975e-01 1.03641458e-01
      9.94397774e-02 2.53501415e-01 2.64705896e-01 2.39495814e-01
      2.42296919e-01 5.04201725e-02 9.49579835e-01</_>
    <_>
      4.03530896e-02 1.00882724e-01 1.08448930e-01 4.03530896e-02
      7.56620392e-02 3.78310196e-02 3.78310196e-02 8.44892785e-02
      6.68348074e-02 0. 1.89155098e-02 7.81841129e-02 5.42244650e-02
      1.13493063e-01 1.12232029e-01 3.02648172e-02 2.90037841e-01
      2.35813349e-01 1.63934439e-01 3.10214370e-01 2.37074405e-01
      2.52206802e-01 2.77427495e-01 2.33291298e-01 1.27364442e-01
      1.32408574e-01 2.54728854e-01 2.71122307e-01 2.34552324e-01
      2.39596486e-01 9.45775509e-02 9.05422509e-01</_>
    <_>
      5.27752489e-02 8.37124661e-02 8.00727904e-02 3.36669683e-02
      7.46132880e-02 4.91355769e-02 5.64149208e-02 7.64331222e-02
      7.73430392e-02 2.54777074e-02 2.91173793e-02 8.91719759e-02
      4.54959050e-02 9.09918100e-02 9.00818929e-02 4.54959050e-02
      2.50227481e-01 2.56596923e-01 2.21110106e-01 2.72065520e-01
      2.50227481e-01 2.49317557e-01 2.55686969e-01 2.44767964e-01
      1.76524103e-01 1.61055505e-01 2.60236591e-01 2.46587798e-01
      2.39308462e-01 2.53867149e-01 1.60145581e-01 8.39854479e-01</_>
    <_>
      5.88235296e-02 9.63488817e-02 9.43204835e-02 7.50507116e-02
      6.28803223e-02 1.01419883e-02 1.01419883e-02 7.30223134e-02
      7.60649070e-02 1.41987829e-02 3.04259639e-02 7.30223134e-02
      6.49087206e-02 1.01419881e-01 9.43204835e-02 6.49087206e-02
      3.24543595e-01 1.56186610e-01 1.93711966e-01 3.25557798e-01
      2.62677461e-01 2.22109526e-01 2.29208916e-01 2.86004037e-01
      1.64300203e-01 1.64300203e-01 2.28194714e-01 2.52535492e-01
      2.56592274e-01 2.62677491e-01 6.49087206e-02 9.35091257e-01</_>
    <_>
      4.08450700e-02 1.07042253e-01 9.85915512e-02 3.23943645e-02
      7.46478885e-02 2.39436626e-02 2.67605633e-02 8.87323916e-02
      7.74647892e-02 2.81690136e-02 1.83098596e-02 7.60563388e-02
      3.66197191e-02 1.04225352e-01 1.15492955e-01 5.07042259e-02
      2.78873235e-01 2.14084506e-01 2.00000003e-01 3.07042241e-01
      2.29577467e-01 2.63380289e-01 2.59154916e-01 2.47887328e-01
      1.33802816e-01 1.23943657e-01 2.46478871e-01 2.46478871e-01
      2.46478871e-01 2.60563374e-01 9.71831009e-02 9.02816892e-01</_>
    <_>
      5.80137670e-02 9.83284190e-02 9.83284190e-02 5.80137670e-02
      7.96460211e-02 3.93313682e-03 6.88298931e-03 9.24287140e-02
      8.25958699e-02 2.26155352e-02 2.35988200e-02 9.34119970e-02
      5.70304804e-02 9.24287140e-02 8.75122920e-02 4.52310704e-02
      3.12684357e-01 1.82890862e-01 2.22222224e-01 2.82202572e-01
      2.77286142e-01 2.17305809e-01 2.16322511e-01 2.89085537e-01
      1.30776793e-01 1.44542769e-01 2.39921331e-01 2.55653888e-01
      2.54670620e-01 2.49754190e-01 5.70304804e-02 9.42969561e-01</_>
    <_>
      4.55840454e-02 1.08262107e-01 1.09686613e-01 4.98575494e-02
      7.97720775e-02 2.27920227e-02 9.97150969e-03 7.97720775e-02
      8.40455815e-02 2.42165234e-02 3.27635333e-02 8.40455815e-02
      3.84615399e-02 9.97150987e-02 9.68660936e-02 3.41880359e-02
      3.13390315e-01 1.92307681e-01 2.25071222e-01 2.69230753e-01
      2.47863233e-01 2.54985750e-01 2.49287754e-01 2.47863233e-01
      1.35327637e-01 1.22507125e-01 2.56410241e-01 2.49287754e-01
      2.46438742e-01 2.47863233e-01 8.97435918e-02 9.10256445e-01</_>
    <_>
      5.35714291e-02 9.62301567e-02 9.02777761e-02 4.56349216e-02
      8.13492090e-02 1.38888890e-02 1.98412705e-02 8.73015895e-02
      8.13492090e-02 1.38888890e-02 1.28968256e-02 8.92857164e-02
      4.76190485e-02 9.62301567e-02 9.92063507e-02 7.14285746e-02
      2.85714269e-01 2.02380955e-01 1.97420642e-01 3.14484119e-01
      2.63888896e-01 2.20238090e-01 2.22222224e-01 2.93650806e-01
      1.51785731e-01 1.26984134e-01 2.45039687e-01 2.43055552e-01
      2.39087313e-01 2.72817463e-01 6.05158731e-02 9.39484119e-01</_>
    <_>
      2.43204571e-02 8.58369097e-02 1.05865523e-01 5.29327616e-02
      8.44062939e-02 1.43061513e-02 2.00286116e-02 8.58369097e-02
      8.58369097e-02 3.14735323e-02 3.00429184e-02 8.86981413e-02
      4.43490706e-02 1.05865523e-01 1.00143060e-01 4.00572233e-02
      2.68955648e-01 2.04577968e-01 2.36051500e-01 2.90414870e-01
      2.38912731e-01 2.37482116e-01 2.56080091e-01 2.67525017e-01
      1.08726755e-01 1.48783982e-01 2.08869815e-01 2.64663786e-01
      2.67525017e-01 2.58941323e-01 9.58512127e-02 9.04148817e-01</_>
    <_>
      4.43213284e-02 1.02493078e-01 9.69529077e-02 3.73961218e-02
      8.72576162e-02 2.77008303e-02 2.63157897e-02 8.44875351e-02
      8.72576162e-02 1.52354566e-02 1.66204982e-02 8.86426568e-02
      3.87811624e-02 1.03878118e-01 1.02493078e-01 4.01662067e-02
      2.81163454e-01 2.25761771e-01 2.07756221e-01 2.85318553e-01
      2.57617742e-01 2.49307483e-01 2.42382273e-01 2.50692517e-01
      1.28808856e-01 1.17728531e-01 2.61772871e-01 2.45152354e-01
      2.45152354e-01 2.47922450e-01 8.58725756e-02 9.14127409e-01</_>
    <_>
      4.42338064e-02 1.13744073e-01 1.04265399e-01 3.47551331e-02
      9.16271731e-02 3.31753567e-02 9.47867334e-03 9.47867334e-02
      7.26698264e-02 0. 0. 8.21484998e-02 5.52922599e-02 1.20063193e-01
      9.00473967e-02 5.37124798e-02 2.96998411e-01 2.29067937e-01
      1.54818326e-01 3.19115341e-01 2.63823062e-01 2.66982615e-01
      2.03791469e-01 2.65402853e-01 1.31121635e-01 9.95260626e-02
      2.82780409e-01 2.43285939e-01 2.48025268e-01 2.25908369e-01
      4.26540300e-02 9.57345963e-01</_>
    <_>
      4.88505736e-02 1.06321841e-01 1.04885057e-01 3.59195396e-02
      8.47701132e-02 1.29310349e-02 1.72413792e-02 8.62068981e-02
      8.90804604e-02 2.15517245e-02 1.86781604e-02 7.61494264e-02
      4.31034490e-02 1.10632181e-01 1.06321841e-01 3.73563208e-02
      2.95976996e-01 2.01149434e-01 2.05459774e-01 2.97413796e-01
      2.65804589e-01 2.51436770e-01 2.47126445e-01 2.35632181e-01
      1.17816091e-01 1.17816098e-01 2.52873570e-01 2.44252861e-01
      2.64367819e-01 2.38505751e-01 7.04023018e-02 9.29597676e-01</_>
    <_>
      4.19580415e-02 9.79020968e-02 1.10489510e-01 5.59440553e-02
      8.39160830e-02 2.37762239e-02 1.39860138e-02 7.55244792e-02
      7.55244792e-02 6.99300691e-03 1.67832170e-02 6.85314685e-02
      6.85314685e-02 1.04895107e-01 1.09090909e-01 4.61538471e-02
      3.06293696e-01 1.97202802e-01 1.67832166e-01 3.28671336e-01
      2.69930065e-01 2.33566433e-01 2.50349641e-01 2.46153846e-01
      1.28671333e-01 1.45454541e-01 2.47552440e-01 2.55944073e-01
      2.55944073e-01 2.40559429e-01 6.15384653e-02 9.38461542e-01</_>
    <_>
      3.69318165e-02 9.94318202e-02 1.10795453e-01 5.82386367e-02
      7.95454532e-02 2.55681816e-02 1.27840908e-02 7.81250000e-02
      8.38068202e-02 1.42045459e-02 3.26704532e-02 7.52840936e-02
      4.97159101e-02 1.06534094e-01 9.94318202e-02 3.69318165e-02
      3.05397719e-01 1.96022719e-01 2.05965906e-01 2.92613626e-01
      2.50000000e-01 2.45738640e-01 2.55681813e-01 2.48579547e-01
      1.32102266e-01 1.34943187e-01 2.41477281e-01 2.59943187e-01
      2.54261374e-01 2.44318187e-01 8.52272734e-02 9.14772749e-01</_>
    <_>
      5.46654090e-02 9.04806778e-02 9.42507088e-02 6.12629578e-02
      7.82280862e-02 2.26201694e-02 2.54476909e-02 8.19981173e-02
      8.48256350e-02 2.82752123e-02 3.11027337e-02 8.29406232e-02
      3.95852961e-02 8.95381719e-02 8.57681409e-02 4.90103662e-02
      3.00659746e-01 2.08294064e-01 2.27144212e-01 2.63901979e-01
      2.57304430e-01 2.30914235e-01 2.36569285e-01 2.75212049e-01
      1.57398671e-01 1.54571161e-01 2.45994344e-01 2.62959480e-01
      2.42224321e-01 2.48821855e-01 1.07445806e-01 8.92554164e-01</_>
    <_>
      4.59081829e-02 9.48103815e-02 9.58083868e-02 3.99201587e-02
      8.18363279e-02 2.19560880e-02 2.79441122e-02 8.18363279e-02
      8.48303363e-02 2.79441122e-02 2.39520967e-02 8.28343332e-02
      4.79041934e-02 9.48103815e-02 9.58083868e-02 5.18962070e-02
      2.76447117e-01 2.13572860e-01 2.19560876e-01 2.90419161e-01
      2.60479033e-01 2.39520967e-01 2.43512988e-01 2.56487042e-01
      1.43712580e-01 1.43712580e-01 2.44510978e-01 2.45508984e-01
      2.55489022e-01 2.54491031e-01 1.01796411e-01 8.98203671e-01</_>
    <_>
      5.75858243e-02 1.08527131e-01 1.07419714e-01 5.20487279e-02
      7.86267966e-02 1.10741975e-02 1.21816164e-02 7.53045380e-02
      8.52713212e-02 1.66112948e-02 1.55038759e-02 8.08416381e-02
      5.20487279e-02 9.96677727e-02 9.96677727e-02 4.76190485e-02
      3.25581431e-01 1.77187145e-01 1.98228121e-01 2.99003303e-01
      2.73532689e-01 2.35880405e-01 2.34772980e-01 2.55813956e-01
      1.31782949e-01 1.32890373e-01 2.55813956e-01 2.46954590e-01
      2.53599107e-01 2.43632331e-01 5.53709865e-02 9.44629133e-01</_>
    <_>
      5.41401282e-02 1.05095543e-01 1.02972396e-01 5.73248416e-02
      6.90021217e-02 1.06157111e-02 1.06157111e-02 7.96178356e-02
      8.28025490e-02 1.69851389e-02 1.91082805e-02 8.38641152e-02
      5.73248416e-02 9.76645425e-02 1.01910830e-01 5.09554148e-02
      3.19532931e-01 1.69851393e-01 2.02760085e-01 3.07855636e-01
      2.63269663e-01 2.30360925e-01 2.34607220e-01 2.71762222e-01
      1.34819537e-01 1.42250538e-01 2.38853499e-01 2.50530779e-01
      2.54777074e-01 2.55838633e-01 5.73248416e-02 9.42675114e-01</_>
    <_>
      4.32033725e-02 9.90516320e-02 1.03266597e-01 5.26870377e-02
      8.00843015e-02 2.10748147e-02 2.10748147e-02 7.79768154e-02
      8.21917802e-02 1.26448898e-02 1.89673342e-02 7.90305585e-02
      6.00632243e-02 1.00105375e-01 1.00105375e-01 4.84720767e-02
      2.98208654e-01 2.00210750e-01 1.92834556e-01 3.08746070e-01
      2.65542686e-01 2.32876718e-01 2.43414119e-01 2.58166492e-01
      1.31717592e-01 1.46469966e-01 2.43414119e-01 2.55005270e-01
      2.55005270e-01 2.46575341e-01 7.37618506e-02 9.26238179e-01</_>
    <_>
      2.98062600e-02 9.98509675e-02 1.19225040e-01 5.66318929e-02
      6.70640841e-02 8.94187763e-03 1.04321912e-02 8.34575295e-02
      7.45156482e-02 2.38450076e-02 2.23546941e-02 7.74962753e-02
      5.96125200e-02 1.14754096e-01 1.07302532e-01 4.47093882e-02
      3.05514157e-01 1.69895679e-01 1.98211625e-01 3.26378524e-01
      2.30998516e-01 2.47391939e-01 2.59314477e-01 2.62295097e-01
      1.05812222e-01 1.50521606e-01 2.05663189e-01 2.69746661e-01
      2.72727251e-01 2.51862884e-01 6.55737668e-02 9.34426248e-01</_>
    <_>
      3.59116010e-02 1.04972377e-01 1.02209948e-01 2.48618778e-02
      1.06353588e-01 1.24309389e-02 1.65745858e-02 9.94475111e-02
      9.94475111e-02 2.20994484e-02 1.24309389e-02 1.02209948e-01
      2.48618778e-02 1.02209948e-01 1.00828730e-01 3.31491716e-02
      2.67955810e-01 2.34806627e-01 2.36187845e-01 2.61049747e-01
      2.66574562e-01 2.41712719e-01 2.32044190e-01 2.59668529e-01
      9.39226523e-02 8.83977935e-02 2.59668499e-01 2.43093938e-01
      2.48618782e-01 2.48618782e-01 6.35359064e-02 9.36464012e-01</_>
    <_>
      4.14993316e-02 1.04417674e-01 9.77242291e-02 2.94511374e-02
      1.09772421e-01 5.35475230e-03 5.35475230e-03 8.03212821e-02
      1.08433738e-01 2.14190092e-02 2.00803205e-02 9.77242291e-02
      3.61445770e-02 1.00401610e-01 1.04417674e-01 3.74832675e-02
      2.73092359e-01 2.00803220e-01 2.47657299e-01 2.78447151e-01
      2.95850068e-01 2.31593043e-01 2.27576971e-01 2.44979918e-01
      1.04417674e-01 9.23694745e-02 2.61044174e-01 2.12851390e-01
      2.66398937e-01 2.59705484e-01 5.22088334e-02 9.47791159e-01</_>
    <_>
      2.62430944e-02 9.80663002e-02 1.00828730e-01 2.62430944e-02
      1.04972377e-01 1.24309389e-02 2.20994484e-02 1.04972377e-01
      9.94475111e-02 2.07182318e-02 2.07182318e-02 9.94475111e-02
      3.03867403e-02 9.80663002e-02 1.04972377e-01 3.03867403e-02
      2.51381218e-01 2.44475141e-01 2.40331501e-01 2.63812155e-01
      2.61049718e-01 2.29281768e-01 2.48618796e-01 2.61049718e-01
      8.97790045e-02 9.94475111e-02 2.41712704e-01 2.54143655e-01
      2.48618782e-01 2.55524874e-01 7.59668499e-02 9.24033105e-01</_>
    <_>
      3.37552726e-02 1.06891699e-01 1.04078762e-01 2.53164563e-02
      1.04078762e-01 1.26582282e-02 1.26582282e-02 1.01265825e-01
      1.01265825e-01 2.25035157e-02 1.26582282e-02 1.02672294e-01
      2.53164563e-02 1.04078762e-01 1.02672294e-01 2.81293951e-02
      2.70042181e-01 2.30661035e-01 2.39099860e-01 2.60196894e-01
      2.64416307e-01 2.46132195e-01 2.32067510e-01 2.57383972e-01
      8.72011185e-02 8.57946575e-02 2.57383972e-01 2.43319273e-01
      2.53164560e-01 2.46132225e-01 6.04781993e-02 9.39521790e-01</_>
    <_>
      4.01459858e-02 9.24574211e-02 8.88077840e-02 1.94647200e-02
      1.07055962e-01 3.04136258e-02 2.91970801e-02 9.00243297e-02
      1.02189779e-01 3.89294401e-02 3.89294401e-02 9.73236039e-02
      2.55474448e-02 8.39416087e-02 9.24574211e-02 2.31143553e-02
      2.40875915e-01 2.56691009e-01 2.77372241e-01 2.25060821e-01
      2.74939179e-01 2.45742097e-01 2.49391735e-01 2.29927003e-01
      1.32603407e-01 1.13138683e-01 2.70072997e-01 2.27493912e-01
      2.50608265e-01 2.51824826e-01 1.37469590e-01 8.62530410e-01</_>
    <_>
      4.72440943e-02 1.21259846e-01 1.10236220e-01 2.99212597e-02
      7.71653578e-02 1.88976377e-02 2.99212597e-02 8.34645703e-02
      7.55905509e-02 9.44881886e-03 9.44881886e-03 9.13385823e-02
      2.99212597e-02 1.05511814e-01 1.18110240e-01 4.25196849e-02
      3.08661431e-01 2.09448814e-01 1.85826778e-01 2.96063006e-01
      2.29921266e-01 2.55118132e-01 2.67716527e-01 2.47244090e-01
      1.18110240e-01 9.92126018e-02 2.64566958e-01 2.53543317e-01
      2.20472440e-01 2.61417329e-01 6.77165389e-02 9.32283461e-01</_>
    <_>
      4.93273549e-02 1.07623316e-01 1.09118089e-01 3.88639756e-02
      7.17488825e-02 4.48430516e-03 1.49476836e-02 9.11808684e-02
      7.77279511e-02 2.09267568e-02 2.24215239e-02 9.56651717e-02
      3.43796723e-02 1.04633778e-01 1.12107620e-01 4.48430479e-02
      3.04932743e-01 1.82361737e-01 2.16741413e-01 2.95964122e-01
      2.33183876e-01 2.37668157e-01 2.58594930e-01 2.70553052e-01
      1.21076234e-01 1.09118089e-01 2.33183861e-01 2.54110605e-01
      2.37668157e-01 2.75037348e-01 6.27802685e-02 9.37219739e-01</_>
    <_>
      3.98162343e-02 1.14854515e-01 1.07197553e-01 3.21592651e-02
      7.50382841e-02 1.37825422e-02 2.75650844e-02 9.49463993e-02
      8.26952532e-02 9.18836147e-03 9.18836147e-03 9.49463993e-02
      2.90964786e-02 1.07197553e-01 1.16385914e-01 4.59418073e-02
      2.94027567e-01 2.11332321e-01 1.96018368e-01 2.98621744e-01
      2.26646245e-01 2.45022982e-01 2.60336906e-01 2.67993867e-01
      1.08728945e-01 9.80091915e-02 2.43491575e-01 2.61868298e-01
      2.28177637e-01 2.66462475e-01 5.97243495e-02 9.40275669e-01</_>
    <_>
      5.72556779e-02 8.98321792e-02 8.98321792e-02 6.41658455e-02
      9.27936807e-02 9.87166818e-03 5.92300110e-03 8.68706778e-02
      9.08193514e-02 5.92300110e-03 3.94866755e-03 8.48963484e-02
      6.61401749e-02 9.18065161e-02 9.08193514e-02 6.91016763e-02
      3.01085889e-01 1.95459038e-01 1.85587376e-01 3.17867696e-01
      3.07008892e-01 1.97433367e-01 1.90523207e-01 3.05034578e-01
      1.40177697e-01 1.42152026e-01 2.49753207e-01 2.46791691e-01
      2.54689038e-01 2.48766050e-01 2.56663375e-02 9.74333644e-01</_>
    <_>
      5.20000011e-02 9.89999995e-02 1.00000001e-01 6.19999990e-02
      8.20000023e-02 8.00000038e-03 1.20000001e-02 8.69999975e-02
      7.90000036e-02 8.00000038e-03 8.00000038e-03 8.69999975e-02
      5.90000004e-02 9.79999974e-02 9.79999974e-02 6.10000007e-02
      3.12999994e-01 1.89000010e-01 1.82000011e-01 3.15999985e-01
      2.72000015e-01 2.13000000e-01 2.17999995e-01 2.96999991e-01
      1.29000008e-01 1.41000003e-01 2.40999997e-01 2.60999978e-01
      2.43999988e-01 2.53999978e-01 3.60000022e-02 9.63999987e-01</_>
    <_>
      3.35820913e-02 9.32835788e-02 8.70646760e-02 3.98009941e-02
      8.08457732e-02 3.23383100e-02 3.73134315e-02 7.83582106e-02
      7.83582106e-02 3.23383100e-02 2.98507456e-02 9.45273638e-02
      4.47761193e-02 9.45273638e-02 9.95024890e-02 4.35323380e-02
      2.53731340e-01 2.28855729e-01 2.35074639e-01 2.82338291e-01
      2.37562180e-01 2.52487540e-01 2.53731340e-01 2.56218910e-01
      1.39303476e-01 1.54228866e-01 2.40049750e-01 2.42537320e-01
      2.50000000e-01 2.67412931e-01 1.31840795e-01 8.68159235e-01</_>
    <_>
      1.28022758e-02 6.97012767e-02 7.53911808e-02 2.27596015e-02
      8.39260295e-02 6.40113801e-02 5.83214797e-02 9.81507823e-02
      8.96159336e-02 3.98293026e-02 3.98293026e-02 9.81507823e-02
      2.84495018e-02 9.38833579e-02 9.38833579e-02 3.12944539e-02
      1.80654332e-01 3.04409683e-01 2.67425328e-01 2.47510657e-01
      2.14793742e-01 2.67425299e-01 2.67425328e-01 2.50355631e-01
      1.47937402e-01 1.49359882e-01 2.30440959e-01 2.54623055e-01
      2.51778096e-01 2.63157904e-01 2.01991454e-01 7.98008502e-01</_>
    <_>
      2.34375000e-02 8.85416642e-02 7.94270858e-02 1.17187500e-02
      9.63541642e-02 5.46875000e-02 6.11979179e-02 8.72395858e-02
      8.46354142e-02 5.85937500e-02 5.46875000e-02 9.63541642e-02
      1.17187500e-02 7.94270858e-02 8.85416642e-02 2.34375000e-02
      2.03125000e-01 2.99479157e-01 2.94270813e-01 2.03125000e-01
      2.16145828e-01 2.81250000e-01 2.83854157e-01 2.18750000e-01
      1.56250000e-01 1.43229172e-01 2.63020813e-01 2.39583343e-01
      2.34375000e-01 2.63020813e-01 2.29166672e-01 7.70833313e-01</_>
    <_>
      2.62793917e-02 9.82019380e-02 9.82019380e-02 2.62793917e-02
      1.05117567e-01 1.38312588e-02 2.07468886e-02 1.05117567e-01
      9.95850638e-02 2.07468886e-02 2.07468886e-02 9.95850638e-02
      3.04287691e-02 9.95850638e-02 1.05117567e-01 3.04287691e-02
      2.48962656e-01 2.44813293e-01 2.40663916e-01 2.65560180e-01
      2.61410803e-01 2.32365161e-01 2.44813293e-01 2.61410803e-01
      9.12863091e-02 9.82019380e-02 2.43430153e-01 2.50345796e-01
      2.50345796e-01 2.55878299e-01 7.60719255e-02 9.23928082e-01</_>
    <_>
      3.59116010e-02 1.04972377e-01 1.02209948e-01 2.48618778e-02
      1.06353588e-01 1.24309389e-02 1.65745858e-02 9.94475111e-02
      9.94475111e-02 2.20994484e-02 1.24309389e-02 1.02209948e-01
      2.48618778e-02 1.02209948e-01 1.00828730e-01 3.31491716e-02
      2.67955810e-01 2.34806627e-01 2.36187845e-01 2.61049747e-01
      2.66574562e-01 2.41712719e-01 2.32044190e-01 2.59668529e-01
      9.39226523e-02 8.83977935e-02 2.59668499e-01 2.43093938e-01
      2.48618782e-01 2.48618782e-01 6.35359064e-02 9.36464012e-01</_>
    <_>
      4.04411778e-02 9.31372568e-02 8.94607827e-02 1.96078438e-02
      1.07843138e-01 3.06372549e-02 2.94117648e-02 9.06862766e-02
      1.02941178e-01 3.92156877e-02 3.92156877e-02 9.80392173e-02
      2.45098043e-02 7.84313753e-02 9.31372568e-02 2.32843142e-02
      2.42647052e-01 2.58578420e-01 2.79411763e-01 2.19362751e-01
      2.75735319e-01 2.41421580e-01 2.51225501e-01 2.31617659e-01
      1.33578435e-01 1.12745099e-01 2.72058845e-01 2.29166672e-01
      2.45098054e-01 2.53676474e-01 1.38480395e-01 8.61519575e-01</_>
    <_>
      2.89308168e-02 9.30817574e-02 8.93081725e-02 4.02515717e-02
      7.79874250e-02 3.27044018e-02 3.77358496e-02 7.92452842e-02
      7.92452842e-02 3.01886797e-02 3.01886797e-02 9.55974832e-02
      4.52830195e-02 9.55974832e-02 1.00628927e-01 4.40251566e-02
      2.51572311e-01 2.27672964e-01 2.35220134e-01 2.85534590e-01
      2.31446549e-01 2.51572311e-01 2.57861614e-01 2.59119481e-01
      1.35849059e-01 1.53459117e-01 2.32704386e-01 2.46540874e-01
      2.50314474e-01 2.70440251e-01 1.30817607e-01 8.69182408e-01</_>
    <_>
      2.51851846e-02 8.88888910e-02 1.08148150e-01 5.48148155e-02
      7.25925937e-02 1.62962954e-02 1.92592591e-02 8.88888910e-02
      8.14814791e-02 2.81481482e-02 3.11111119e-02 9.18518528e-02
      3.99999991e-02 1.08148150e-01 1.03703700e-01 4.14814800e-02
      2.77037024e-01 1.97037041e-01 2.32592583e-01 2.93333352e-01
      2.19259262e-01 2.41481483e-01 2.62222201e-01 2.77037024e-01
      1.14074074e-01 1.42222226e-01 2.02962965e-01 2.71111131e-01
      2.57777780e-01 2.68148124e-01 9.48148146e-02 9.05185163e-01</_>
    <_>
      3.63901034e-02 1.10625908e-01 1.10625908e-01 3.63901034e-02
      1.01892285e-01 1.16448328e-02 1.89228524e-02 8.58806372e-02
      9.17030573e-02 4.80349362e-02 5.24017476e-02 8.44250396e-02
      2.32896656e-02 9.02474523e-02 8.44250396e-02 1.31004369e-02
      2.94032007e-01 2.18340605e-01 2.76564777e-01 2.11062595e-01
      2.53275096e-01 2.60553122e-01 2.66375542e-01 2.19796211e-01
      1.13537125e-01 1.26637548e-01 2.60553151e-01 2.51819491e-01
      2.53275096e-01 2.34352246e-01 1.31004363e-01 8.68995667e-01</_>
    <_>
      2.47933883e-02 8.26446265e-02 8.26446265e-02 2.12514754e-02
      8.02833512e-02 5.07674143e-02 7.08382502e-02 8.73671770e-02
      7.55608007e-02 6.49350658e-02 6.25737906e-02 9.09090936e-02
      1.53482882e-02 7.91027173e-02 8.26446265e-02 2.83353012e-02
      2.11334109e-01 2.89256185e-01 2.93978751e-01 2.05430925e-01
      1.95985824e-01 2.77449816e-01 2.98701286e-01 2.27863044e-01
      1.66469902e-01 1.72373086e-01 2.38488793e-01 2.62101531e-01
      2.34946877e-01 2.64462799e-01 2.49114513e-01 7.50885427e-01</_>
    <_>
      6.61764741e-02 1.32352948e-01 9.11764726e-02 3.08823530e-02
      5.00000007e-02 2.05882359e-02 3.08823530e-02 6.17647059e-02
      8.08823556e-02 3.52941193e-02 7.35294120e-03 8.67647082e-02
      3.67647074e-02 1.02941178e-01 1.22058824e-01 4.41176482e-02
      3.20588261e-01 1.63235292e-01 2.10294127e-01 3.05882365e-01
      2.33823538e-01 2.91176468e-01 2.51470596e-01 2.23529413e-01
      1.38235301e-01 1.33823529e-01 2.69117653e-01 2.14705884e-01
      2.55882353e-01 2.60294139e-01 9.41176489e-02 9.05882299e-01</_>
    <_>
      2.71903332e-02 1.10271901e-01 1.05740182e-01 3.47432010e-02
      3.62537764e-02 3.02114803e-02 3.47432010e-02 1.05740182e-01
      6.64652586e-02 2.87009068e-02 1.35951666e-02 8.45921487e-02
      4.53172214e-02 1.16314203e-01 1.20845921e-01 3.92749235e-02
      2.77945608e-01 2.06948638e-01 1.93353474e-01 3.21752280e-01
      1.75226584e-01 2.85498500e-01 2.74924457e-01 2.64350444e-01
      1.10271901e-01 1.43504530e-01 2.03927487e-01 2.80966759e-01
      2.56797582e-01 2.58308172e-01 1.07250750e-01 8.92749310e-01</_>
    <_>
      5.19262999e-02 1.05527639e-01 8.04020092e-02 5.69514222e-02
      1.17252931e-01 0. 0. 1.07202679e-01 1.07202679e-01 0. 0.
      9.71524268e-02 6.19765483e-02 7.87269697e-02 7.87269697e-02
      5.69514222e-02 2.94807374e-01 2.24455610e-01 2.04355106e-01
      2.76381910e-01 3.38358462e-01 1.84254616e-01 1.59128979e-01
      3.18257958e-01 1.08877718e-01 1.18927971e-01 2.74706870e-01
      2.44556114e-01 2.47906208e-01 2.32830808e-01 0. 9.99999940e-01</_>
    <_>
      6.10610619e-02 9.20920894e-02 9.20920894e-02 6.50650635e-02
      9.20920894e-02 8.00800789e-03 3.00300308e-03 8.20820853e-02
      9.20920894e-02 1.00100096e-02 6.00600615e-03 8.00800771e-02
      6.30630627e-02 9.30930898e-02 9.30930898e-02 6.70670643e-02
      3.10310304e-01 1.85185194e-01 1.88188180e-01 3.16316307e-01
      3.08308303e-01 2.03203201e-01 1.94194198e-01 2.94294298e-01
      1.42142147e-01 1.41141146e-01 2.53253251e-01 2.42242247e-01
      2.58258253e-01 2.46246219e-01 2.70270258e-02 9.72973049e-01</_>
    <_>
      7.43707120e-02 1.10983983e-01 9.83981714e-02 6.06407337e-02
      7.78032020e-02 2.28832960e-02 9.15331766e-03 4.00457680e-02
      8.23798627e-02 9.15331766e-03 1.25858122e-02 6.86498880e-02
      6.17848970e-02 9.95423347e-02 9.83981714e-02 7.32265413e-02
      3.44393581e-01 1.49885580e-01 1.72768891e-01 3.32951933e-01
      2.96338677e-01 2.42562935e-01 2.18535468e-01 2.42562935e-01
      1.83066368e-01 1.40732259e-01 2.86041200e-01 2.08237991e-01
      2.52860427e-01 2.52860427e-01 5.37757427e-02 9.46224213e-01</_>
    <_>
      3.06569338e-02 1.03649639e-01 9.63503644e-02 3.64963487e-02
      8.02919716e-02 4.37956192e-02 2.91970801e-02 9.63503644e-02
      7.88321197e-02 1.31386863e-02 4.37956210e-03 8.02919716e-02
      3.64963487e-02 1.12408757e-01 1.02189779e-01 5.54744527e-02
      2.67153293e-01 2.49635041e-01 1.76642343e-01 3.06569338e-01
      2.26277381e-01 2.72992700e-01 2.32116774e-01 2.68613130e-01
      1.34306565e-01 1.15328468e-01 2.58394182e-01 2.58394152e-01
      2.40875915e-01 2.42335767e-01 9.05109495e-02 9.09489036e-01</_>
    <_>
      5.20939752e-02 9.60163400e-02 9.60163400e-02 5.61797768e-02
      9.49948952e-02 7.15015316e-03 7.15015316e-03 8.88661891e-02
      9.09090936e-02 7.15015316e-03 2.14504600e-02 8.78447369e-02
      5.00510707e-02 9.60163400e-02 9.19305384e-02 5.61797768e-02
      3.00306439e-01 1.98161393e-01 2.07354441e-01 2.94177711e-01
      2.88049042e-01 2.06332982e-01 2.16547489e-01 2.89070487e-01
      1.36874363e-01 1.20531149e-01 2.50255346e-01 2.48212457e-01
      2.44126648e-01 2.57405519e-01 4.29009199e-02 9.57099080e-01</_>
    <_>
      3.77358496e-02 9.98890102e-02 9.76692587e-02 4.32852395e-02
      8.10210854e-02 1.77580472e-02 3.10765821e-02 8.76803547e-02
      7.99112096e-02 1.10987788e-02 8.87902360e-03 8.32408443e-02
      4.55049947e-02 1.07658155e-01 1.07658155e-01 5.99334091e-02
      2.78579354e-01 2.17536077e-01 1.83129847e-01 3.20754707e-01
      2.44173139e-01 2.36404002e-01 2.45283008e-01 2.74139822e-01
      1.24306329e-01 1.30965590e-01 2.36403987e-01 2.59711444e-01
      2.44173139e-01 2.59711444e-01 6.88124299e-02 9.31187570e-01</_>
    <_>
      4.11522649e-02 1.06995888e-01 1.06995888e-01 5.89849092e-02
      8.09327811e-02 2.19478738e-02 1.09739369e-02 7.81892985e-02
      7.54458159e-02 1.64609049e-02 2.74348427e-02 8.09327811e-02
      4.66392301e-02 1.04252398e-01 1.00137174e-01 4.25240062e-02
      3.14128935e-01 1.92043900e-01 2.00274348e-01 2.93552816e-01
      2.44170099e-01 2.49657065e-01 2.45541841e-01 2.60630995e-01
      1.33058980e-01 1.33058980e-01 2.51028806e-01 2.55144030e-01
      2.42798343e-01 2.51028806e-01 7.68175572e-02 9.23182428e-01</_>
    <_>
      4.12654728e-02 1.03163689e-01 9.76616219e-02 4.53920215e-02
      8.52819830e-02 1.10041266e-02 2.75103170e-02 7.84044042e-02
      8.80330130e-02 2.33837683e-02 2.33837683e-02 9.35350731e-02
      4.53920215e-02 9.21595618e-02 1.01788171e-01 4.26409915e-02
      2.87482798e-01 2.02200830e-01 2.28335619e-01 2.81980723e-01
      2.59972513e-01 2.29711145e-01 2.50343889e-01 2.59972483e-01
      1.18294358e-01 1.41678125e-01 2.40715265e-01 2.48968363e-01
      2.48968363e-01 2.61348009e-01 8.52819756e-02 9.14717972e-01</_>
    <_>
      7.14285746e-02 9.95975882e-02 9.85915512e-02 5.63380271e-02
      7.54527152e-02 2.01207236e-03 1.40845068e-02 9.05432627e-02
      8.04829001e-02 1.40845068e-02 2.11267602e-02 9.65794772e-02
      4.42655943e-02 8.85311887e-02 9.45674032e-02 5.23138829e-02
      3.25955749e-01 1.82092547e-01 2.12273642e-01 2.79678077e-01
      2.71629781e-01 2.04225361e-01 2.28370219e-01 2.95774639e-01
      1.46881297e-01 1.28772631e-01 2.48490959e-01 2.59557337e-01
      2.27364182e-01 2.64587522e-01 5.13078459e-02 9.48692203e-01</_>
    <_>
      3.75123397e-02 9.87166837e-02 9.87166837e-02 6.51530102e-02
      7.69990161e-02 1.77690033e-02 1.18460022e-02 7.50246793e-02
      8.68706778e-02 2.27048378e-02 4.44225073e-02 8.48963484e-02
      4.83711734e-02 9.57551822e-02 9.18065161e-02 4.34353389e-02
      3.00098717e-01 1.81638703e-01 2.38894373e-01 2.79368222e-01
      2.49753207e-01 2.34945714e-01 2.46791705e-01 2.68509388e-01
      1.43139184e-01 1.48075014e-01 2.30997056e-01 2.50740379e-01
      2.53701866e-01 2.64560729e-01 9.67423469e-02 9.03257608e-01</_>
    <_>
      4.62585017e-02 1.07482992e-01 1.07482992e-01 2.99319737e-02
      7.07482994e-02 2.44897958e-02 2.72108838e-02 8.84353742e-02
      8.43537450e-02 2.85714287e-02 2.72108838e-02 9.93197262e-02
      2.85714287e-02 8.97959173e-02 1.00680269e-01 3.94557826e-02
      2.91156441e-01 2.10884362e-01 2.39455789e-01 2.58503377e-01
      2.29931980e-01 2.50340134e-01 2.62585014e-01 2.57142842e-01
      1.37414962e-01 1.14285715e-01 2.48979583e-01 2.53061235e-01
      2.31292516e-01 2.66666651e-01 1.07482992e-01 8.92516911e-01</_>
    <_>
      4.98084277e-02 1.12388253e-01 1.13665387e-01 7.66283497e-02
      7.40740746e-02 8.93997401e-03 6.38569612e-03 6.76883757e-02
      7.53512159e-02 2.55427845e-02 2.55427845e-02 7.27969334e-02
      4.46998738e-02 1.08556829e-01 9.83397216e-02 3.95913161e-02
      3.52490425e-01 1.57088131e-01 1.99233711e-01 2.91187733e-01
      2.43933588e-01 2.55427837e-01 2.43933588e-01 2.56704986e-01
      1.23882502e-01 1.53256714e-01 2.45210737e-01 2.64367819e-01
      2.54150718e-01 2.36270756e-01 6.64112419e-02 9.33588743e-01</_>
    <_>
      4.61095087e-02 1.03746399e-01 9.79827121e-02 3.17002870e-02
      8.64553303e-02 1.72910672e-02 2.30547544e-02 9.51008648e-02
      8.50144103e-02 2.88184434e-02 2.30547544e-02 8.06916431e-02
      3.02593652e-02 1.05187319e-01 1.08069167e-01 3.74639779e-02
      2.79538900e-01 2.21902013e-01 2.17579246e-01 2.80979812e-01
      2.47838616e-01 2.55043238e-01 2.52161384e-01 2.44956776e-01
      1.23919308e-01 1.13832846e-01 2.53602296e-01 2.47838616e-01
      2.49279529e-01 2.49279544e-01 9.22190174e-02 9.07780945e-01</_>
    <_>
      7.64119625e-02 8.85935780e-03 5.53709874e-03 6.64451793e-02
      1.02990031e-01 1.01882614e-01 9.96677727e-02 1.06312290e-01
      8.52713212e-02 8.85935798e-02 8.85935798e-02 1.04097456e-01 0. 0.
      0. 6.53377622e-02 1.57253593e-01 4.10852671e-01 3.66555929e-01
      6.53377622e-02 2.64673322e-01 1.99335545e-01 1.93798453e-01
      3.42192709e-01 3.32225919e-01 2.54706532e-01 2.90143967e-01
      2.77962327e-01 1.73864901e-01 2.58028805e-01 3.78737539e-01
      6.21262491e-01</_>
    <_>
      6.94789067e-02 0. 0. 6.20347410e-02 1.12903222e-01 8.68486390e-02
      8.68486390e-02 1.07940450e-01 8.68486390e-02 1.09181143e-01
      8.68486390e-02 1.04218364e-01 0. 7.44416891e-03 0. 7.94044659e-02
      1.31513655e-01 3.94540966e-01 3.87096792e-01 8.68486315e-02
      2.69230783e-01 2.03473955e-01 1.73697278e-01 3.53598028e-01
      3.22580665e-01 2.58064508e-01 2.69230783e-01 2.56823838e-01
      2.03473955e-01 2.70471483e-01 3.69727075e-01 6.30272985e-01</_>
    <_>
      3.70860919e-02 3.97351012e-03 0. 8.60927179e-02 1.05960265e-01
      7.54966885e-02 7.41721839e-02 1.24503314e-01 9.80132446e-02
      1.19205296e-01 9.53642353e-02 1.27152324e-01 0. 0. 0.
      5.29801324e-02 1.27152324e-01 3.80132437e-01 4.39735115e-01
      5.29801324e-02 2.41059601e-01 1.98675498e-01 1.69536412e-01
      3.90728474e-01 2.60927141e-01 2.79470205e-01 2.22516552e-01
      2.84768224e-01 2.17218548e-01 2.75496691e-01 3.64238411e-01
      6.35761559e-01</_>
    <_>
      5.87557591e-02 2.76497696e-02 0. 5.18433191e-02 1.01382487e-01
      8.06451589e-02 6.91244230e-02 1.09447002e-01 9.90783423e-02
      1.00230418e-01 1.12903222e-01 1.12903222e-01 0. 0. 0.
      7.60368630e-02 1.38248846e-01 3.60599071e-01 4.25115228e-01
      7.60368630e-02 2.59216607e-01 2.08525345e-01 1.82027638e-01
      3.50230396e-01 3.28341007e-01 2.21198171e-01 2.68433154e-01
      2.30414748e-01 1.99308753e-01 3.01843315e-01 3.62903237e-01
      6.37096763e-01</_>
    <_>
      5.48862107e-02 4.28380184e-02 0. 0. 9.37081650e-02 1.33868810e-02
      0. 0. 1.13788486e-01 6.69344068e-02 8.70147273e-02 1.03078984e-01
      1.15127176e-01 1.07095048e-01 1.03078984e-01 9.90629196e-02
      9.77242291e-02 1.07095048e-01 3.70816618e-01 4.24364120e-01
      3.77510041e-01 2.30254352e-01 1.90093711e-01 2.02141911e-01
      2.54350722e-01 1.82061583e-01 2.04819262e-01 0. 4.02945101e-01
      3.92235607e-01 1.67336017e-01 8.32663953e-01</_>
    <_>
      7.57097825e-02 0. 0. 6.15141951e-02 1.19873814e-01 6.62460551e-02
      7.25552067e-02 1.13564670e-01 1.04100950e-01 9.46372226e-02
      9.46372226e-02 1.19873814e-01 0. 0. 0. 7.72870630e-02
      1.37223974e-01 3.72239739e-01 4.13249224e-01 7.72870630e-02
      2.99684554e-01 1.60883278e-01 1.67192429e-01 3.72239769e-01
      3.13880146e-01 2.28706628e-01 2.61829644e-01 2.47634068e-01
      1.98738173e-01 2.91798115e-01 3.28075707e-01 6.71924293e-01</_>
    <_>
      7.75656328e-02 1.07398564e-02 0. 5.96658699e-02 1.14558473e-01
      8.35322216e-02 7.15990439e-02 1.01431981e-01 8.47255364e-02
      8.83054882e-02 1.02625296e-01 1.14558473e-01 0. 0. 0.
      9.06921253e-02 1.47971362e-01 3.71121705e-01 3.90214801e-01
      9.06921253e-02 2.76849627e-01 1.82577565e-01 1.74224347e-01
      3.66348475e-01 3.54415268e-01 2.19570398e-01 2.86396176e-01
      2.32696891e-01 1.73031032e-01 3.07875901e-01 3.46062064e-01
      6.53937936e-01</_>
    <_>
      3.73514444e-02 0. 0. 5.09337857e-02 1.06960952e-01 8.82852301e-02
      8.48896429e-02 1.30730048e-01 8.82852301e-02 1.18845500e-01
      1.15449913e-01 1.30730048e-01 0. 0. 0. 4.75381985e-02
      8.82852301e-02 4.10865903e-01 4.53310668e-01 4.75381985e-02
      2.32597619e-01 2.07130730e-01 2.00339556e-01 3.59932095e-01
      2.88624763e-01 2.54668921e-01 2.32597619e-01 2.66553462e-01
      2.07130730e-01 2.93718159e-01 4.07470286e-01 5.92529774e-01</_>
    <_>
      6.46438003e-02 1.05540901e-02 0. 6.06860146e-02 1.18733510e-01
      6.86015859e-02 7.65171498e-02 9.76253301e-02 1.05540894e-01
      1.05540894e-01 1.05540894e-01 1.21372029e-01 0. 0. 0.
      6.46438003e-02 1.35883898e-01 3.61477554e-01 4.37994719e-01
      6.46438003e-02 2.88918197e-01 1.84696570e-01 1.82058036e-01
      3.44327152e-01 3.03430080e-01 2.42744058e-01 2.62532979e-01
      2.34828487e-01 2.11081788e-01 2.91556716e-01 3.56200546e-01
      6.43799424e-01</_>
    <_>
      7.97011182e-02 0. 0. 7.72104636e-02 1.08343713e-01 8.71731043e-02
      8.71731043e-02 1.04607724e-01 8.71731043e-02 8.71731043e-02
      8.71731043e-02 1.14570364e-01 0. 0. 0. 7.97011182e-02
      1.56911582e-01 3.87297660e-01 3.76089692e-01 7.97011182e-02
      2.75217950e-01 1.74346209e-01 1.74346209e-01 3.76089692e-01
      3.33748460e-01 2.51556665e-01 2.75217950e-01 2.68991292e-01
      1.74346209e-01 2.81444579e-01 3.48692417e-01 6.51307642e-01</_>
    <_>
      7.18015656e-02 1.17493477e-02 0. 7.44125322e-02 1.12271540e-01
      6.26631826e-02 5.22193201e-02 1.01827674e-01 1.04438640e-01
      1.04438640e-01 1.04438640e-01 1.22715406e-01 0. 0. 0.
      7.70234987e-02 1.57963455e-01 3.28981698e-01 4.36031342e-01
      7.70234987e-02 2.88511753e-01 1.78851172e-01 1.56657964e-01
      3.75979125e-01 3.15926880e-01 2.31070489e-01 2.58485615e-01
      2.28459537e-01 2.08877280e-01 3.04177552e-01 3.23759764e-01
      6.76240206e-01</_>
    <_>
      1.25984251e-02 4.72440943e-02 0. 0. 8.34645703e-02 4.56692912e-02
      0. 0. 1.35433078e-01 1.14960633e-01 9.60629955e-02 7.40157515e-02
      8.97637829e-02 1.16535433e-01 9.29133892e-02 9.13385823e-02
      5.98425195e-02 1.29133865e-01 4.20472443e-01 3.90551180e-01
      3.21259856e-01 3.24409455e-01 1.88976377e-01 1.65354341e-01
      2.45669305e-01 2.04724416e-01 1.88976377e-01 0. 4.56692934e-01
      3.54330719e-01 2.56692916e-01 7.43307114e-01</_>
    <_>
      8.49056616e-02 1.10062892e-02 0. 6.28930852e-02 1.22641511e-01
      6.28930852e-02 6.28930852e-02 1.06918238e-01 1.10062890e-01
      9.43396240e-02 9.43396240e-02 1.25786170e-01 0. 0. 0.
      6.13207556e-02 1.58805043e-01 3.55345935e-01 4.24528301e-01
      6.13207556e-02 3.17610055e-01 1.68238997e-01 1.57232702e-01
      3.56918246e-01 3.03459138e-01 2.20125794e-01 2.81446546e-01
      2.32704401e-01 2.04402506e-01 2.81446546e-01 3.14465404e-01
      6.85534656e-01</_>
    <_>
      2.58717667e-02 4.38695177e-02 0. 0. 7.64904395e-02 2.92463433e-02
      0. 0. 1.03487067e-01 1.12485938e-01 1.12485938e-01 1.07986502e-01
      1.12485938e-01 9.89876240e-02 8.99887532e-02 8.66141766e-02
      6.97412863e-02 1.05736785e-01 4.36445445e-01 3.88076484e-01
      3.18335205e-01 2.84589410e-01 2.02474684e-01 1.94600672e-01
      2.54218221e-01 2.24971876e-01 1.75478071e-01 0. 4.27446544e-01
      3.97075355e-01 2.54218221e-01 7.45781839e-01</_>
    <_>
      7.87401572e-03 0. 0. 4.98687662e-02 1.10236220e-01 2.62467191e-02
      4.19947505e-02 1.46981627e-01 1.23359583e-01 1.57480314e-01
      1.46981627e-01 1.20734908e-01 0. 0. 0. 6.82414696e-02
      5.77427819e-02 3.25459301e-01 5.48556447e-01 6.82414696e-02
      2.41469830e-01 1.83727026e-01 1.88976377e-01 3.85826766e-01
      2.49343842e-01 2.49343827e-01 1.44356966e-01 2.38845140e-01
      2.80839890e-01 3.35958004e-01 3.72703403e-01 6.27296627e-01</_>
    <_>
      5.36912754e-02 4.53020148e-02 0. 0. 1.17449664e-01 3.02013420e-02
      0. 0. 1.39261752e-01 1.61073819e-01 1.02348991e-01 7.88590610e-02
      4.19463105e-02 5.87248318e-02 7.38255009e-02 9.73154381e-02
      9.89932865e-02 1.47651002e-01 4.81543630e-01 2.71812081e-01
      3.52349013e-01 2.95302004e-01 1.76174492e-01 1.76174492e-01
      2.83557028e-01 2.03020126e-01 2.46644288e-01 0. 4.01006728e-01
      3.52348983e-01 2.93624163e-01 7.06375837e-01</_>
    <_>
      8.39260295e-02 0. 0. 5.68990037e-02 1.13798007e-01 5.83214797e-02
      6.40113801e-02 1.02418207e-01 1.10953055e-01 1.13798007e-01
      1.13798007e-01 1.16642959e-01 0. 0. 0. 6.54338524e-02
      1.40825033e-01 3.38549078e-01 4.55192029e-01 6.54338524e-02
      3.08677107e-01 1.72119483e-01 1.77809387e-01 3.41394037e-01
      3.21479380e-01 2.34708399e-01 2.56045520e-01 2.23328590e-01
      2.24751055e-01 2.95874834e-01 3.49928856e-01 6.50071144e-01</_>
    <_>
      2.31481474e-02 6.25000000e-02 0. 0. 6.25000000e-02 4.16666679e-02
      0. 0. 1.03009261e-01 7.87037015e-02 6.94444478e-02 9.83796269e-02
      1.15740739e-01 1.15740739e-01 1.15740739e-01 1.13425925e-01
      8.56481493e-02 1.04166672e-01 3.49537015e-01 4.60648119e-01
      3.04398149e-01 2.98611104e-01 1.85185194e-01 2.11805552e-01
      2.47685179e-01 1.94444448e-01 1.89814821e-01 0. 4.13194448e-01
      3.96990716e-01 1.89814821e-01 8.10185134e-01</_>
    <_>
      3.14136110e-02 0. 0. 5.49738221e-02 1.02094240e-01 2.61780107e-03
      3.14136110e-02 1.51832461e-01 1.23036653e-01 1.33507848e-01
      1.43979058e-01 1.57068059e-01 0. 0. 0. 6.80628270e-02
      8.63874331e-02 2.87958115e-01 5.57591617e-01 6.80628270e-02
      2.56544501e-01 1.36125654e-01 1.75392672e-01 4.31937158e-01
      2.46073291e-01 2.19895273e-01 1.36125654e-01 2.38219887e-01
      2.56544501e-01 3.69109929e-01 3.11518312e-01 6.88481688e-01</_>
    <_>
      2.05245148e-02 5.47320396e-02 0. 0. 5.81527948e-02 3.87685299e-02
      0. 0. 1.03762828e-01 1.14025086e-01 1.14025086e-01 1.10604331e-01
      1.07183583e-01 9.12200660e-02 9.12200660e-02 9.57810730e-02
      7.52565563e-02 9.69213247e-02 4.42417324e-01 3.85404825e-01
      2.89623708e-01 2.98745722e-01 2.05245152e-01 2.06385404e-01
      2.69099206e-01 2.21208662e-01 1.72177881e-01 0. 4.16191578e-01
      4.11630571e-01 2.66818702e-01 7.33181357e-01</_>
    <_>
      2.43204571e-02 3.29041481e-02 0. 0. 8.86981413e-02 2.71816887e-02
      5.72246080e-03 5.72246080e-03 1.21602289e-01 1.43061519e-01
      1.43061519e-01 1.11587986e-01 8.29756781e-02 8.72675255e-02
      7.15307593e-02 5.43633774e-02 5.72246052e-02 1.27324760e-01
      5.19313335e-01 2.96137333e-01 3.17596585e-01 2.90414870e-01
      2.20314741e-01 1.71673834e-01 2.48927027e-01 2.31759667e-01
      1.73104435e-01 1.14449216e-02 4.34907019e-01 3.80543649e-01
      3.19027185e-01 6.80972815e-01</_>
    <_>
      1.56075805e-02 5.57413585e-02 0. 0. 6.68896288e-02 5.46265319e-02
      2.22965442e-02 2.00668890e-02 1.03678927e-01 1.09253064e-01
      1.11482717e-01 1.05908588e-01 1.00334451e-01 8.91861767e-02
      8.91861767e-02 5.57413585e-02 7.13489354e-02 1.63879588e-01
      4.30323303e-01 3.34448159e-01 2.86510587e-01 3.08807135e-01
      2.22965434e-01 1.81716830e-01 2.37458184e-01 2.31884062e-01
      1.92865103e-01 4.23634350e-02 4.02452648e-01 3.62318873e-01
      2.97658861e-01 7.02341199e-01</_>
    <_>
      2.04081628e-02 1.02040814e-02 0. 0. 7.14285746e-02 0. 0. 0.
      1.32653058e-01 1.36054426e-01 1.02040820e-01 3.40136066e-02
      5.44217676e-02 1.59863949e-01 1.59863949e-01 1.19047619e-01
      3.06122452e-02 7.14285746e-02 4.04761910e-01 4.93197292e-01
      2.78911561e-01 3.06122452e-01 2.61904776e-01 1.53061226e-01
      2.41496593e-01 1.90476194e-01 1.02040820e-01 0. 4.82993186e-01
      4.14965987e-01 2.38095254e-01 7.61904776e-01</_>
    <_>
      2.57879663e-02 5.87392561e-02 0. 0. 1.24641836e-01 4.72779386e-02
      0. 0. 1.00286536e-01 1.31805152e-01 1.11747853e-01 9.31232125e-02
      5.73065914e-02 7.87965581e-02 9.59885418e-02 7.44985640e-02
      8.45272243e-02 1.71919778e-01 4.36962783e-01 3.06590259e-01
      3.08022916e-01 3.16618919e-01 2.07736403e-01 1.67621776e-01
      2.59312332e-01 1.89111739e-01 2.56446987e-01 0. 3.68194848e-01
      3.75358164e-01 2.90830940e-01 7.09169030e-01</_>
    <_>
      1.25000002e-02 2.25000009e-02 0. 0. 2.50000004e-02 0. 0. 0.
      1.19999997e-01 6.75000027e-02 5.24999984e-02 5.99999987e-02
      2.17500001e-01 1.35000005e-01 1.67500004e-01 1.19999997e-01
      3.50000001e-02 2.50000004e-02 2.99999982e-01 6.40000045e-01
      3.75000000e-01 2.25000009e-01 2.19999999e-01 1.79999992e-01
      1.85000002e-01 2.84999996e-01 6.00000024e-02 0. 5.40000021e-01
      4.00000006e-01 1.20000005e-01 8.80000055e-01</_>
    <_>
      2.76243091e-02 3.45303863e-02 0. 0. 9.39226523e-02 1.93370171e-02
      1.24309389e-02 9.66850854e-03 1.18784532e-01 1.21546961e-01
      1.36740327e-01 1.17403314e-01 8.42541456e-02 8.83977935e-02
      7.04419911e-02 6.49171248e-02 6.21546954e-02 1.35359123e-01
      4.94475126e-01 3.08011055e-01 3.24585646e-01 2.63812155e-01
      2.19613254e-01 1.91988945e-01 2.48618782e-01 2.18232051e-01
      1.75414369e-01 2.20994465e-02 4.12983447e-01 3.89502764e-01
      2.90055245e-01 7.09944785e-01</_>
    <_>
      5.45851514e-02 0. 0. 4.58515286e-02 1.35371178e-01 3.49344984e-02
      2.18340605e-02 1.15720525e-01 8.51528421e-02 9.17030573e-02
      1.31004363e-01 1.74672484e-01 0. 0. 0. 1.09170303e-01
      1.00436680e-01 3.07860255e-01 4.82532740e-01 1.09170303e-01
      2.75109172e-01 1.26637548e-01 1.52838424e-01 4.45414841e-01
      3.29694331e-01 1.59388646e-01 2.24890828e-01 1.83406115e-01
      1.76855892e-01 4.14847136e-01 2.79475987e-01 7.20524073e-01</_>
    <_>
      5.51330782e-02 0. 0. 7.22433478e-02 1.19771861e-01 5.70342205e-02
      5.70342205e-02 1.23574145e-01 7.41444901e-02 1.02661595e-01
      1.14068441e-01 1.52091250e-01 0. 0. 0. 7.22433478e-02
      1.27376422e-01 3.57414454e-01 4.42965806e-01 7.22433478e-02
      2.49049425e-01 1.59695819e-01 1.71102658e-01 4.20152068e-01
      2.98479080e-01 2.31939167e-01 2.31939167e-01 2.52851725e-01
      1.76806092e-01 3.38403046e-01 3.30798477e-01 6.69201493e-01</_>
    <_>
      1.79104470e-02 2.83582099e-02 0. 0. 6.86567128e-02 3.28358226e-02
      1.19402986e-02 1.49253728e-02 1.22388057e-01 1.49253726e-01
      1.49253726e-01 1.22388057e-01 7.76119381e-02 7.46268630e-02
      7.46268630e-02 5.52238822e-02 4.62686568e-02 1.28358215e-01
      5.43283582e-01 2.82089531e-01 2.86567152e-01 2.85074621e-01
      2.35820889e-01 1.92537308e-01 2.55223870e-01 2.38805965e-01
      1.47761196e-01 2.68656723e-02 4.23880577e-01 4.01492536e-01
      3.43283564e-01 6.56716406e-01</_>
    <_>
      3.10880821e-02 0. 0. 7.77202100e-02 1.11398965e-01 5.18134721e-02
      5.18134721e-02 1.34715021e-01 1.21761657e-01 1.03626944e-01
      1.03626944e-01 1.50259063e-01 0. 0. 0. 6.21761642e-02
      1.08808294e-01 3.49740922e-01 4.79274631e-01 6.21761642e-02
      2.64248699e-01 1.55440420e-01 1.55440420e-01 4.24870461e-01
      2.48704672e-01 2.33160615e-01 1.94300517e-01 2.64248699e-01
      2.25388601e-01 3.16062182e-01 3.10880840e-01 6.89119160e-01</_>
    <_>
      4.68227416e-02 0. 0. 5.68561889e-02 1.25418067e-01 1.17056854e-01
      1.17056854e-01 1.45484954e-01 6.18729107e-02 8.36120397e-02
      6.35451525e-02 1.35451511e-01 0. 0. 0. 4.68227416e-02
      1.03678927e-01 5.05016685e-01 3.44481617e-01 4.68227416e-02
      2.34113723e-01 2.00668901e-01 1.80602014e-01 3.84615362e-01
      2.74247497e-01 2.57525086e-01 2.89297670e-01 3.19397986e-01
      1.45484954e-01 2.45819405e-01 3.81270885e-01 6.18729055e-01</_>
    <_>
      4.83870972e-03 3.06451619e-02 0. 0. 5.48387095e-02 3.54838707e-02
      0. 0. 1.32258058e-01 1.25806451e-01 1.12903222e-01 9.83870998e-02
      9.19354856e-02 1.09677419e-01 1.12903222e-01 9.03225839e-02
      3.54838707e-02 9.03225839e-02 4.69354838e-01 4.04838711e-01
      2.83870965e-01 3.01612914e-01 2.25806445e-01 1.88709676e-01
      2.43548393e-01 2.17741936e-01 1.25806451e-01 0. 4.59677398e-01
      4.14516121e-01 2.74193525e-01 7.25806475e-01</_>
    <_>
      2.58302577e-02 1.23001235e-02 0. 0. 8.36408362e-02 1.23001235e-02
      0. 0. 1.23001233e-01 1.23001233e-01 1.08241081e-01 6.39606416e-02
      9.10209119e-02 1.23001233e-01 1.23001233e-01 1.10701106e-01
      3.81303802e-02 9.59409624e-02 4.18204188e-01 4.47724491e-01
      3.23493242e-01 2.70602703e-01 2.31242314e-01 1.74661756e-01
      2.57072568e-01 2.14022145e-01 1.34071335e-01 0. 4.60024595e-01
      4.05904084e-01 2.43542433e-01 7.56457567e-01</_>
    <_>
      0. 4.25170064e-02 0. 0. 3.91156450e-02 4.93197292e-02 0. 0.
      1.13945581e-01 1.42857149e-01 1.36054426e-01 8.33333358e-02
      1.05442174e-01 1.20748296e-01 8.50340128e-02 8.16326514e-02
      4.25170064e-02 8.84353742e-02 4.76190507e-01 3.92857134e-01
      2.58503407e-01 3.55442166e-01 2.21088439e-01 1.64965987e-01
      2.67006814e-01 2.48299330e-01 1.30952388e-01 0. 4.82993186e-01
      3.86054426e-01 3.28231305e-01 6.71768725e-01</_>
    <_>
      3.13390307e-02 0. 0. 5.98290600e-02 1.59544155e-01 5.69800586e-02
      5.69800586e-02 1.36752144e-01 9.11680907e-02 9.11680907e-02
      1.13960117e-01 1.42450139e-01 0. 0. 0. 5.98290600e-02
      9.11680907e-02 4.10256386e-01 4.38746452e-01 5.98290600e-02
      2.82051265e-01 1.48148149e-01 1.70940176e-01 3.98860395e-01
      2.62108266e-01 2.07977206e-01 2.47863248e-01 2.53561258e-01
      1.82336181e-01 3.16239297e-01 3.19088340e-01 6.80911720e-01</_>
    <_>
      0. 3.57142873e-02 0. 0. 3.73376608e-02 4.70779203e-02 0. 0.
      1.23376623e-01 1.57467529e-01 1.44480526e-01 1.12012990e-01
      8.27922076e-02 8.11688304e-02 8.11688304e-02 9.74025950e-02
      3.57142873e-02 8.44155848e-02 5.37337661e-01 3.42532456e-01
      2.43506491e-01 3.21428567e-01 2.25649357e-01 2.09415585e-01
      2.88961053e-01 2.40259737e-01 1.20129868e-01 0. 4.44805205e-01
      4.35064942e-01 3.49025965e-01 6.50973976e-01</_>
    <_>
      4.69208211e-02 0. 0. 7.03812316e-02 1.93548381e-01 1.52492672e-01
      1.46627560e-01 1.61290318e-01 0. 4.10557203e-02 4.69208211e-02
      9.38416421e-02 0. 0. 0. 4.69208211e-02 1.17302053e-01
      6.53958917e-01 1.81818187e-01 4.69208211e-02 2.40469202e-01
      1.93548396e-01 1.93548381e-01 3.72434020e-01 2.93255150e-01
      2.58064508e-01 3.92961860e-01 3.78299117e-01 4.10557203e-02
      1.87683284e-01 3.87096763e-01 6.12903237e-01</_>
    <_>
      2.47252751e-02 5.08241765e-02 0. 0. 8.65384638e-02 2.74725277e-02
      0. 0. 1.23626374e-01 1.11263737e-01 1.09890111e-01 1.03021979e-01
      8.65384638e-02 9.75274742e-02 9.20329690e-02 8.65384638e-02
      7.55494535e-02 1.14010990e-01 4.47802186e-01 3.62637371e-01
      3.21428567e-01 2.87087917e-01 2.01923072e-01 1.89560443e-01
      2.48626381e-01 1.97802201e-01 1.89560443e-01 0. 4.18956041e-01
      3.91483516e-01 2.48626381e-01 7.51373649e-01</_>
    <_>
      2.47252751e-02 5.08241765e-02 0. 0. 8.65384638e-02 2.74725277e-02
      0. 0. 1.23626374e-01 1.11263737e-01 1.09890111e-01 1.03021979e-01
      8.65384638e-02 9.75274742e-02 9.20329690e-02 8.65384638e-02
      7.55494535e-02 1.14010990e-01 4.47802186e-01 3.62637371e-01
      3.21428567e-01 2.87087917e-01 2.01923072e-01 1.89560443e-01
      2.48626381e-01 1.97802201e-01 1.89560443e-01 0. 4.18956041e-01
      3.91483516e-01 2.48626381e-01 7.51373649e-01</_>
    <_>
      1.57728710e-03 3.31230275e-02 0. 0. 5.20504750e-02 4.10094634e-02
      0. 0. 1.27760246e-01 1.46687701e-01 1.41955838e-01 1.07255518e-01
      7.41324946e-02 9.46372226e-02 9.46372226e-02 8.51735026e-02
      3.47003154e-02 9.30599421e-02 5.23659289e-01 3.48580420e-01
      2.55520493e-01 3.15457404e-01 2.36593068e-01 1.92429021e-01
      2.69716084e-01 2.20820189e-01 1.27760261e-01 0. 4.43217665e-01
      4.29022074e-01 3.29653025e-01 6.70346975e-01</_>
    <_>
      4.68018698e-03 4.36817482e-02 0. 0. 4.36817482e-02 5.61622456e-02
      0. 0. 1.06084242e-01 1.34165362e-01 1.10764429e-01 6.24024943e-02
      1.01404056e-01 1.24804989e-01 1.13884553e-01 9.82839316e-02
      4.83619347e-02 9.98439938e-02 4.13416505e-01 4.38377559e-01
      2.55850255e-01 3.58814359e-01 2.24648982e-01 1.60686433e-01
      2.69890785e-01 2.35569417e-01 1.48205936e-01 0. 4.66458619e-01
      3.85335445e-01 3.01092029e-01 6.98907971e-01</_>
    <_>
      5.67375869e-02 0. 0. 5.85106388e-02 1.17021278e-01 1.09929077e-01
      9.04255286e-02 1.29432619e-01 8.68794322e-02 9.39716324e-02
      8.68794322e-02 1.20567374e-01 0. 0. 0. 4.96453904e-02
      1.15248226e-01 4.46808487e-01 3.88297886e-01 4.96453904e-02
      2.60638297e-01 2.03900710e-01 1.77304953e-01 3.58156025e-01
      3.03191483e-01 2.42907792e-01 2.83687949e-01 2.78368771e-01
      1.80851072e-01 2.57092208e-01 3.81205678e-01 6.18794262e-01</_>
    <_>
      4.77272719e-02 0. 0. 4.31818180e-02 1.59090906e-01 1.22727275e-01
      1.15909092e-01 1.40909091e-01 5.45454547e-02 5.68181835e-02
      5.68181835e-02 1.31818175e-01 0. 0. 0. 7.04545453e-02
      9.09090936e-02 5.38636386e-01 3.00000012e-01 7.04545453e-02
      2.61363626e-01 1.79545462e-01 1.72727272e-01 3.86363626e-01
      2.97727287e-01 2.15909094e-01 3.29545438e-01 3.00000012e-01
      1.11363634e-01 2.59090900e-01 3.52272749e-01 6.47727251e-01</_>
    <_>
      4.92505357e-02 0. 0. 3.42612416e-02 1.52034268e-01 1.02783725e-01
      9.63597447e-02 1.17773019e-01 8.13704506e-02 9.42184180e-02
      1.04925051e-01 1.28479660e-01 0. 0. 0. 3.85438986e-02
      8.35117772e-02 4.68950778e-01 4.08993602e-01 3.85438986e-02
      2.82655239e-01 1.97002143e-01 2.01284796e-01 3.19057822e-01
      2.95503229e-01 2.24839404e-01 3.04068506e-01 2.48394012e-01
      1.75588876e-01 2.71948606e-01 3.98286939e-01 6.01713061e-01</_>
    <_>
      6.14203438e-02 1.15163149e-02 0. 5.37428036e-02 1.40115157e-01
      1.17082536e-01 1.05566218e-01 1.34357005e-01 4.03071009e-02
      7.48560429e-02 8.82917494e-02 1.20921306e-01 0. 0. 0.
      5.18234149e-02 1.26679465e-01 4.97120887e-01 3.24376196e-01
      5.18234149e-02 2.41842598e-01 2.03454897e-01 1.93857968e-01
      3.60844523e-01 3.18618029e-01 2.34165072e-01 3.30134362e-01
      2.93666035e-01 1.15163147e-01 2.61036456e-01 3.85796547e-01
      6.14203453e-01</_>
    <_>
      1.77514795e-02 5.68047352e-02 0. 0. 5.91715984e-02 2.48520710e-02
      0. 0. 1.00591719e-01 1.18343197e-01 1.18343197e-01 1.11242607e-01
      1.10059172e-01 9.70414206e-02 9.46745574e-02 9.11242589e-02
      7.45562166e-02 8.40236694e-02 4.48520720e-01 3.92899424e-01
      2.87573963e-01 2.97041416e-01 2.13017762e-01 2.02366859e-01
      2.52071023e-01 2.28402376e-01 1.58579886e-01 0. 4.26035523e-01
      4.15384620e-01 2.61538476e-01 7.38461554e-01</_>
    <_>
      2.10210215e-02 0. 0. 6.00600615e-02 1.02102101e-01 6.60660639e-02
      1.20120123e-01 1.14114113e-01 7.80780762e-02 1.20120123e-01
      1.20120123e-01 1.38138145e-01 0. 0. 0. 6.00600615e-02
      8.10810849e-02 4.02402401e-01 4.56456453e-01 6.00600615e-02
      2.01201200e-01 1.86186194e-01 2.40240246e-01 3.72372359e-01
      2.67267257e-01 3.00300300e-01 1.89189196e-01 2.94294298e-01
      1.98198199e-01 3.18318337e-01 4.26426411e-01 5.73573649e-01</_>
    <_>
      2.15517245e-02 3.73563208e-02 0. 0. 7.90229887e-02 4.88505736e-02
      0. 0. 1.19252875e-01 1.26436785e-01 9.62643698e-02 7.90229887e-02
      7.90229887e-02 1.09195404e-01 1.14942528e-01 8.90804604e-02
      5.89080453e-02 1.27873570e-01 4.20976996e-01 3.92241359e-01
      2.98850596e-01 3.21839094e-01 2.11206898e-01 1.68103456e-01
      2.55747110e-01 2.05459774e-01 1.86781615e-01 0. 4.33908045e-01
      3.79310340e-01 2.71551728e-01 7.28448331e-01</_>
    <_>
      6.29921257e-02 0. 0. 6.88976347e-02 1.39763772e-01 1.20078743e-01
      1.06299214e-01 1.37795269e-01 6.29921257e-02 6.69291317e-02
      5.90551198e-02 1.22047246e-01 0. 0. 0. 5.31496070e-02
      1.31889760e-01 5.03937006e-01 3.11023623e-01 5.31496070e-02
      2.65748024e-01 1.87007874e-01 1.65354341e-01 3.81889760e-01
      2.95275599e-01 2.42125988e-01 3.22834641e-01 3.12992126e-01
      1.29921257e-01 2.34251976e-01 3.52362216e-01 6.47637725e-01</_>
    <_>
      3.92156877e-02 0. 0. 5.88235296e-02 1.54684097e-01 1.43790856e-01
      1.37254909e-01 1.56862751e-01 3.05010900e-02 4.13943343e-02
      5.01089320e-02 1.30718961e-01 0. 0. 0. 5.66448793e-02
      9.80392173e-02 5.92592597e-01 2.52723306e-01 5.66448793e-02
      2.24400878e-01 1.85185194e-01 1.87363833e-01 4.03050125e-01
      2.89760351e-01 2.37472773e-01 3.37690651e-01 3.52941185e-01
      7.18954206e-02 2.37472773e-01 3.72549027e-01 6.27451003e-01</_>
    <_>
      5.21415286e-02 7.44878966e-03 0. 4.46927361e-02 1.26629427e-01
      9.68342647e-02 9.31098685e-02 1.22905031e-01 8.19366872e-02
      9.49720666e-02 9.31098685e-02 1.34078220e-01 0. 0. 0.
      5.21415286e-02 1.04283050e-01 4.39478576e-01 4.04096842e-01
      5.21415286e-02 2.60707647e-01 1.99255124e-01 1.86219737e-01
      3.53817493e-01 2.94227183e-01 2.32774675e-01 2.83054024e-01
      2.60707617e-01 1.76908761e-01 2.79329598e-01 3.78026068e-01
      6.21973991e-01</_>
    <_>
      4.18118462e-02 0. 0. 5.92334494e-02 1.28919855e-01 1.04529619e-01
      9.93031338e-02 1.25435546e-01 7.49128908e-02 9.40766558e-02
      9.23344940e-02 1.20209061e-01 0. 0. 0. 5.92334494e-02
      1.01045296e-01 4.58188176e-01 3.81533116e-01 5.92334494e-02
      2.45644584e-01 1.98606282e-01 1.91637635e-01 3.64111513e-01
      2.97909409e-01 2.52613246e-01 2.75261313e-01 2.83972144e-01
      1.68989539e-01 2.71777004e-01 3.90243888e-01 6.09756052e-01</_>
    <_>
      4.71204184e-02 0. 0. 7.15532303e-02 1.23909250e-01 9.94764417e-02
      1.01221643e-01 1.32635251e-01 6.98080286e-02 8.20244327e-02
      8.37696344e-02 1.23909250e-01 0. 0. 0. 6.45724237e-02
      1.18673652e-01 4.57242608e-01 3.59511346e-01 6.45724237e-02
      2.40837693e-01 1.81500882e-01 1.84991270e-01 3.92670155e-01
      2.94938922e-01 2.54799306e-01 2.70506114e-01 3.05410147e-01
      1.51832461e-01 2.72251308e-01 3.66492152e-01 6.33507848e-01</_>
    <_>
      7.61194006e-02 3.58208939e-02 0. 0. 1.43283576e-01 2.08955221e-02
      0. 0. 1.25373140e-01 1.37313426e-01 1.28358215e-01 9.25373137e-02
      3.28358226e-02 4.62686568e-02 9.55223888e-02 6.56716451e-02
      1.11940295e-01 1.64179102e-01 4.83582079e-01 2.40298510e-01
      3.77611905e-01 2.40298495e-01 2.23880604e-01 1.58208966e-01
      2.91044772e-01 1.70149252e-01 2.76119381e-01 0. 3.41791034e-01
      3.82089585e-01 2.86567152e-01 7.13432789e-01</_>
    <_>
      3.64963501e-03 4.92700748e-02 0. 0. 5.10948896e-02 1.05839416e-01
      1.82481743e-02 1.09489048e-02 1.16788320e-01 1.82481751e-01
      1.82481751e-01 1.36861309e-01 2.18978096e-02 6.20437972e-02
      3.64963487e-02 2.18978096e-02 5.29197082e-02 1.86131388e-01
      6.18613124e-01 1.42335773e-01 1.93430647e-01 3.99635017e-01
      2.37226278e-01 1.69708028e-01 3.13868612e-01 2.22627729e-01
      2.09854007e-01 2.91970782e-02 3.83211672e-01 3.77737224e-01
      4.89051104e-01 5.10948896e-01</_>
    <_>
      6.11735322e-02 3.74531839e-03 0. 5.74282147e-02 1.16104871e-01
      1.04868911e-01 9.98751596e-02 1.12359554e-01 6.99126124e-02
      9.98751596e-02 9.98751596e-02 1.12359554e-01 0. 0. 0.
      6.24219738e-02 1.22347072e-01 4.33208495e-01 3.82022470e-01
      6.24219738e-02 2.47191012e-01 2.08489388e-01 1.99750319e-01
      3.44569296e-01 3.28339577e-01 2.57178545e-01 2.85892636e-01
      2.69662917e-01 1.69787765e-01 2.74656683e-01 4.04494375e-01
      5.95505655e-01</_>
    <_>
      7.16723576e-02 0. 0. 4.60750870e-02 1.46757677e-01 1.16040953e-01
      1.05802044e-01 1.07508533e-01 5.11945374e-02 6.82593882e-02
      8.19112659e-02 1.24573380e-01 0. 0. 0. 8.02047774e-02
      1.17747441e-01 4.76109207e-01 3.25938582e-01 8.02047774e-02
      2.69624591e-01 1.84300333e-01 1.87713310e-01 3.58361781e-01
      3.49829376e-01 2.20136523e-01 3.34470987e-01 2.59385675e-01
      1.19453922e-01 2.86689430e-01 3.72013658e-01 6.27986372e-01</_>
    <_>
      1.81236677e-02 5.97014911e-02 0. 0. 5.75692952e-02 4.90405113e-02
      0. 0. 9.48827267e-02 1.06609806e-01 1.06609806e-01 1.02345414e-01
      1.04477614e-01 1.06609806e-01 1.06609806e-01 8.74200463e-02
      7.78251588e-02 1.06609806e-01 4.10447747e-01 4.05117273e-01
      2.75053322e-01 3.21961612e-01 2.13219613e-01 1.89765453e-01
      2.61194050e-01 2.11087421e-01 1.84434965e-01 0. 4.12579954e-01
      4.02985096e-01 2.62260139e-01 7.37739861e-01</_>
    <_>
      4.04858291e-02 0. 0. 6.88259080e-02 1.25506073e-01 1.13360323e-01
      1.21457487e-01 1.53846160e-01 4.45344113e-02 8.09716582e-02
      8.09716582e-02 1.09311745e-01 0. 0. 0. 6.07287437e-02
      1.09311737e-01 5.14170051e-01 3.15789461e-01 6.07287437e-02
      2.10526317e-01 1.94331974e-01 2.02429146e-01 3.92712533e-01
      2.95546532e-01 2.71255046e-01 2.79352218e-01 3.44129562e-01
      1.25506073e-01 2.51012146e-01 3.96761119e-01 6.03238821e-01</_>
    <_>
      1.68598518e-02 5.16332984e-02 0. 0. 5.90094849e-02 4.42571118e-02
      5.26870368e-03 9.48366709e-03 1.00105375e-01 1.01159118e-01
      1.00105375e-01 1.04320340e-01 1.04320340e-01 9.69441533e-02
      1.05374075e-01 1.01159118e-01 6.84931502e-02 1.18018962e-01
      4.05690223e-01 4.07797694e-01 2.80295044e-01 2.93993682e-01
      2.10748151e-01 2.14963123e-01 2.62381464e-01 2.10748166e-01
      1.71759754e-01 1.47523712e-02 4.02529001e-01 4.10958916e-01
      2.50790298e-01 7.49209702e-01</_>
    <_>
      3.51239666e-02 4.13223132e-02 0. 0. 7.74793401e-02 3.40909101e-02
      0. 0. 1.03305787e-01 1.03305787e-01 1.03305787e-01 9.09090936e-02
      1.01239666e-01 1.03305787e-01 1.03305787e-01 1.03305787e-01
      7.64462799e-02 1.11570254e-01 4.00826454e-01 4.11157042e-01
      3.17148745e-01 2.82024801e-01 2.06611574e-01 1.94214880e-01
      2.75826454e-01 2.04545453e-01 1.88016534e-01 0. 4.11157042e-01
      4.00826454e-01 2.40702480e-01 7.59297609e-01</_>
    <_>
      2.31884066e-02 5.79710156e-02 0. 0. 8.55072439e-02 3.18840593e-02
      0. 0. 1.30434781e-01 1.13043480e-01 1.15942031e-01 1.01449274e-01
      8.26086923e-02 8.98550749e-02 8.69565234e-02 8.11594203e-02
      8.11594203e-02 1.17391303e-01 4.60869581e-01 3.40579718e-01
      3.21739137e-01 2.92753637e-01 2.02898562e-01 1.82608694e-01
      2.52173901e-01 1.95652172e-01 1.98550716e-01 0. 4.15942043e-01
      3.85507256e-01 2.60869563e-01 7.39130437e-01</_>
    <_>
      3.19999992e-03 2.87999995e-02 0. 0. 5.11999987e-02 8.79999995e-02
      0. 0. 1.15199998e-01 1.59999996e-01 1.59999996e-01 9.75999981e-02
      3.51999998e-02 9.60000008e-02 9.60000008e-02 6.88000023e-02
      3.19999978e-02 1.39200002e-01 5.32800019e-01 2.96000004e-01
      2.04799995e-01 3.72799993e-01 2.55999982e-01 1.66400000e-01
      3.19999993e-01 1.95199996e-01 1.71199992e-01 0. 4.06400025e-01
      4.22400028e-01 4.07999992e-01 5.92000008e-01</_>
    <_>
      2.78592370e-02 2.78592370e-02 0. 0. 8.21114406e-02 1.46627566e-02
      0. 2.93255132e-03 1.31964803e-01 1.46627560e-01 1.24633431e-01
      1.20234601e-01 7.33137801e-02 9.09090936e-02 9.38416421e-02
      6.30498528e-02 5.57184741e-02 9.97067466e-02 5.23460388e-01
      3.21114361e-01 3.15249264e-01 2.80058652e-01 2.18475074e-01
      1.86217010e-01 2.30205283e-01 2.19941348e-01 1.52492672e-01
      2.93255132e-03 4.42815214e-01 4.01759535e-01 2.85923749e-01
      7.14076221e-01</_>
    <_>
      1.29870130e-02 3.46320346e-02 0. 0. 5.91630600e-02 5.48340566e-02
      1.15440115e-02 1.01010101e-02 1.02453105e-01 1.41414136e-01
      1.41414136e-01 1.13997117e-01 7.79220760e-02 9.52380970e-02
      9.52380970e-02 4.90620509e-02 4.76190485e-02 1.35642126e-01
      4.99278486e-01 3.17460299e-01 2.52525270e-01 3.26118320e-01
      2.48196244e-01 1.73160180e-01 2.58297265e-01 2.30880231e-01
      1.61616161e-01 2.16450207e-02 4.17027414e-01 3.99711400e-01
      3.49206328e-01 6.50793672e-01</_>
    <_>
      4.56620986e-03 4.41400297e-02 0. 0. 5.02283089e-02 6.08827993e-02
      0. 4.56620986e-03 9.28462744e-02 1.33942157e-01 1.27853885e-01
      1.03500761e-01 8.21917802e-02 1.06544904e-01 1.06544904e-01
      8.21917802e-02 4.87062410e-02 1.15677312e-01 4.58143085e-01
      3.77473354e-01 2.29832575e-01 3.45509887e-01 2.34398782e-01
      1.90258741e-01 2.75494695e-01 2.16133937e-01 1.59817338e-01
      4.56620986e-03 4.15525138e-01 4.20091331e-01 3.22678864e-01
      6.77321136e-01</_>
    <_>
      0. 6.11620806e-02 0. 0. 4.28134538e-02 1.19266056e-01 0. 0.
      1.13149844e-01 1.52905196e-01 1.52905196e-01 1.13149844e-01
      5.04587144e-02 9.17431191e-02 7.33944923e-02 2.90519875e-02
      6.11620806e-02 1.62079513e-01 5.32110095e-01 2.44648322e-01
      2.06422016e-01 4.25076425e-01 2.26299688e-01 1.42201826e-01
      3.01223248e-01 2.03363910e-01 2.23241597e-01 0. 4.08256888e-01
      3.68501514e-01 4.25076455e-01 5.74923515e-01</_>
    <_>
      2.43204571e-02 3.29041481e-02 0. 0. 8.86981413e-02 2.71816887e-02
      5.72246080e-03 5.72246080e-03 1.21602289e-01 1.43061519e-01
      1.43061519e-01 1.11587986e-01 8.29756781e-02 8.72675255e-02
      7.15307593e-02 5.43633774e-02 5.72246052e-02 1.27324760e-01
      5.19313335e-01 2.96137333e-01 3.17596585e-01 2.90414870e-01
      2.20314741e-01 1.71673834e-01 2.48927027e-01 2.31759667e-01
      1.73104435e-01 1.14449216e-02 4.34907019e-01 3.80543649e-01
      3.19027185e-01 6.80972815e-01</_>
    <_>
      3.03030312e-02 2.74170283e-02 0. 0. 8.51370841e-02 1.73160173e-02
      0. 2.88600288e-03 1.29870132e-01 1.44300148e-01 1.22655123e-01
      1.18326120e-01 7.50360787e-02 9.23520923e-02 9.23520923e-02
      6.20490611e-02 5.77200577e-02 1.05339102e-01 5.15151501e-01
      3.21789324e-01 3.20346326e-01 2.81385303e-01 2.15007216e-01
      1.83261186e-01 2.32323229e-01 2.19336227e-01 1.60173148e-01
      2.88600288e-03 4.41558450e-01 3.95382404e-01 2.84271300e-01
      7.15728760e-01</_>
    <_>
      1.96078438e-02 4.90196086e-02 0. 0. 9.31372568e-02 3.43137272e-02
      0. 0. 1.32352948e-01 1.01307191e-01 8.82352963e-02 8.66013095e-02
      1.01307191e-01 1.20915033e-01 9.15032700e-02 8.16993490e-02
      6.86274543e-02 1.27450988e-01 4.08496737e-01 3.95424843e-01
      3.46405238e-01 3.05555552e-01 1.79738566e-01 1.68300658e-01
      2.23856211e-01 2.02614382e-01 1.96078435e-01 0. 4.55882341e-01
      3.48039210e-01 2.23856211e-01 7.76143849e-01</_>
    <_>
      2.41157562e-02 5.78778125e-02 0. 0. 1.01286173e-01 2.73311902e-02
      0. 0. 1.38263673e-01 1.06109321e-01 9.48553085e-02 8.52090046e-02
      7.23472685e-02 8.52090046e-02 1.01286173e-01 1.06109321e-01
      8.19935650e-02 1.28617361e-01 4.24437314e-01 3.64951760e-01
      3.36012900e-01 2.76527345e-01 1.96141481e-01 1.91318333e-01
      2.52411574e-01 1.78456590e-01 2.10610926e-01 0. 4.01929259e-01
      3.87459815e-01 2.28295818e-01 7.71704197e-01</_>
    <_>
      2.46734396e-02 5.80551513e-02 0. 0. 1.20464444e-01 5.22496365e-02
      0. 0. 1.01596519e-01 1.33526847e-01 1.08853407e-01 8.85341093e-02
      5.51523939e-02 7.98258334e-02 1.01596519e-01 7.54716992e-02
      8.27285945e-02 1.72714084e-01 4.32510883e-01 3.12046468e-01
      3.01886797e-01 3.23657453e-01 2.10449934e-01 1.64005816e-01
      2.61248171e-01 1.88679248e-01 2.55442679e-01 0. 3.70101571e-01
      3.74455750e-01 2.94629902e-01 7.05370128e-01</_>
    <_>
      5.05050505e-03 4.71380465e-02 0. 0. 6.06060624e-02 4.20875438e-02
      0. 0. 1.39730632e-01 1.31313130e-01 1.17845118e-01 9.25925896e-02
      7.91245773e-02 8.41750875e-02 9.42760929e-02 1.06060609e-01
      5.21885529e-02 1.02693602e-01 4.81481493e-01 3.63636374e-01
      2.84511775e-01 3.04713815e-01 2.12121218e-01 1.98653191e-01
      2.71043777e-01 2.10437715e-01 1.54882163e-01 0. 4.34343427e-01
      4.10774410e-01 2.91245788e-01 7.08754182e-01</_>
    <_>
      6.43086806e-02 0. 0. 5.14469445e-02 1.44694537e-01 1.02893889e-01
      9.64630246e-02 1.06109321e-01 6.75241128e-02 9.64630246e-02
      9.64630246e-02 1.22186497e-01 0. 0. 0. 5.14469445e-02
      1.15755625e-01 4.50160772e-01 3.82636666e-01 5.14469445e-02
      2.76527315e-01 1.99356914e-01 1.92926049e-01 3.31189722e-01
      3.15112531e-01 2.44372994e-01 3.11897099e-01 2.54019290e-01
      1.63987130e-01 2.70096481e-01 3.92282963e-01 6.07717037e-01</_>
    <_>
      6.81003556e-02 2.15053763e-02 0. 7.04898462e-02 1.09916367e-01
      7.40740746e-02 7.16845915e-02 1.05137393e-01 1.02747910e-01
      1.06332138e-01 9.55794528e-02 1.09916367e-01 0. 0. 0.
      6.45161271e-02 1.60095572e-01 3.60812426e-01 4.14575845e-01
      6.45161271e-02 2.80764639e-01 2.01911598e-01 1.67264044e-01
      3.50059718e-01 3.02269995e-01 2.48506576e-01 2.73596168e-01
      2.47311831e-01 2.09080040e-01 2.70011961e-01 3.47670257e-01
      6.52329743e-01</_>
    <_>
      2.74566468e-02 6.93641603e-02 0. 0. 6.64739907e-02 2.89017335e-02
      0. 0. 1.08381502e-01 5.34682088e-02 4.91329469e-02 2.74566468e-02
      1.35838151e-01 1.44508675e-01 1.44508675e-01 1.44508675e-01
      9.68208089e-02 9.53757241e-02 2.38439292e-01 5.69364130e-01
      3.38150293e-01 2.96242774e-01 1.93641618e-01 1.71965316e-01
      2.50000000e-01 1.89306363e-01 1.92196518e-01 0. 4.42196548e-01
      3.65606964e-01 1.31502882e-01 8.68497074e-01</_>
    <_>
      3.50631140e-02 3.92706878e-02 0. 0. 9.39691439e-02 2.80504916e-02
      0. 0. 1.23422161e-01 1.22019634e-01 1.12201966e-01 9.39691439e-02
      8.27489495e-02 1.02384292e-01 9.53716710e-02 7.15287551e-02
      7.43338019e-02 1.22019634e-01 4.51612890e-01 3.52033675e-01
      3.35203350e-01 2.91725099e-01 2.07573637e-01 1.65497899e-01
      2.46844321e-01 2.04768583e-01 1.96353450e-01 0. 4.30575043e-01
      3.73071551e-01 2.62272090e-01 7.37727880e-01</_>
    <_>
      7.24971220e-02 1.03567317e-02 0. 8.74568447e-02 1.05868816e-01
      8.17031041e-02 8.05523619e-02 1.02416568e-01 9.43613350e-02
      9.89643261e-02 8.05523619e-02 9.66628343e-02 0. 0. 0.
      8.86075944e-02 1.70310706e-01 3.70540857e-01 3.70540857e-01
      8.86075944e-02 2.72727281e-01 1.91024154e-01 1.61104724e-01
      3.75143826e-01 3.23360205e-01 2.66973525e-01 2.70425767e-01
      2.70425767e-01 1.93325669e-01 2.65822768e-01 3.41772169e-01
      6.58227861e-01</_>
    <_>
      1.91693287e-02 0. 0. 6.38977662e-02 1.30990416e-01 9.58466455e-02
      9.58466455e-02 1.56549513e-01 2.87539940e-02 9.58466455e-02
      9.58466455e-02 1.43769965e-01 0. 0. 0. 7.34824315e-02
      8.30670968e-02 4.79233235e-01 3.64217252e-01 7.34824315e-02
      1.78913742e-01 1.91693291e-01 1.91693291e-01 4.37699646e-01
      2.84345061e-01 2.55591065e-01 2.46006399e-01 3.16293925e-01
      1.24600641e-01 3.13099027e-01 3.83386582e-01 6.16613448e-01</_>
    <_>
      3.22128870e-02 3.64145674e-02 0. 0. 9.10364166e-02 1.68067235e-02
      2.10084040e-02 9.80392192e-03 1.23249300e-01 1.40056029e-01
      1.40056029e-01 1.16246499e-01 7.00280145e-02 7.98319355e-02
      7.00280145e-02 5.32212891e-02 6.86274543e-02 1.38655469e-01
      5.19607902e-01 2.73109257e-01 3.16526622e-01 2.73109257e-01
      2.31092453e-01 1.79271713e-01 2.42296934e-01 2.31092453e-01
      1.76470593e-01 3.08123268e-02 4.13165271e-01 3.79551828e-01
      3.17927182e-01 6.82072818e-01</_>
    <_>
      7.55905509e-02 1.73228346e-02 0. 6.14173226e-02 1.19685039e-01
      6.29921257e-02 6.29921257e-02 1.07086614e-01 9.44881886e-02
      9.44881886e-02 1.00787401e-01 1.25984251e-01 0. 0. 0.
      7.71653578e-02 1.54330716e-01 3.52755904e-01 4.15748030e-01
      7.71653578e-02 2.89763778e-01 1.74803153e-01 1.63779527e-01
      3.71653557e-01 3.16535443e-01 2.18897641e-01 2.75590539e-01
      2.31496066e-01 1.88976377e-01 3.03937018e-01 3.21259856e-01
      6.78740203e-01</_>
    <_>
      7.48587549e-02 2.54237279e-02 0. 0. 1.03107348e-01 1.41242938e-03
      0. 0. 1.24293782e-01 5.64971752e-02 5.64971752e-02 8.19209069e-02
      1.35593221e-01 1.27118647e-01 1.12994350e-01 1.00282483e-01
      1.00282483e-01 1.04519777e-01 3.19209039e-01 4.75988716e-01
      4.37853098e-01 2.10451975e-01 1.69491529e-01 1.82203382e-01
      2.33050853e-01 1.92090392e-01 2.04802260e-01 0. 4.43502843e-01
      3.51694912e-01 1.14406779e-01 8.85593235e-01</_>
    <_>
      1.69014093e-02 0. 0. 5.07042259e-02 1.15492955e-01 0.
      1.97183099e-02 1.12676054e-01 1.54929578e-01 1.40845075e-01
      1.49295777e-01 1.85915500e-01 0. 0. 0. 5.35211265e-02
      6.76056370e-02 2.47887313e-01 6.30985916e-01 5.35211265e-02
      2.87323952e-01 1.40845075e-01 1.69014081e-01 4.02816921e-01
      2.19718307e-01 2.11267620e-01 1.32394359e-01 1.83098584e-01
      2.95774639e-01 3.88732404e-01 3.09859157e-01 6.90140843e-01</_>
    <_>
      1.93452388e-02 3.42261903e-02 0. 0. 7.29166642e-02 2.38095243e-02
      0. 0. 1.23511903e-01 1.26488090e-01 1.01190478e-01 1.02678575e-01
      9.07738060e-02 1.05654761e-01 1.11607142e-01 8.77976194e-02
      5.35714291e-02 9.67261866e-02 4.53869045e-01 3.95833313e-01
      3.06547612e-01 2.90178567e-01 2.12797612e-01 1.90476194e-01
      2.32142866e-01 2.17261896e-01 1.50297612e-01 0. 4.46428597e-01
      4.03273791e-01 2.51488090e-01 7.48511910e-01</_>
    <_>
      5.13307974e-02 3.80228125e-02 0. 0. 9.03041810e-02 5.51330782e-02
      2.85171103e-02 5.41825108e-02 9.50570330e-02 9.50570330e-02
      9.50570330e-02 9.50570330e-02 9.12547559e-02 5.60836494e-02
      7.88973421e-02 7.60456249e-02 8.93536061e-02 2.28136882e-01
      3.80228132e-01 3.02281380e-01 3.27946782e-01 2.44296581e-01
      2.02471495e-01 2.25285172e-01 2.77566552e-01 2.14828908e-01
      2.34790862e-01 8.26996192e-02 3.37452471e-01 3.45057040e-01
      2.73764253e-01 7.26235747e-01</_>
    <_>
      9.47867334e-03 0. 0. 7.10900500e-02 9.95260701e-02 7.10900500e-02
      7.10900500e-02 1.25592411e-01 1.04265399e-01 1.18483409e-01
      1.13744073e-01 1.44549757e-01 0. 0. 0. 7.10900500e-02
      8.05687234e-02 3.67298573e-01 4.81042653e-01 7.10900500e-02
      2.13270143e-01 1.89573467e-01 1.84834123e-01 4.12322253e-01
      2.65402853e-01 2.60663509e-01 1.80094793e-01 2.67772496e-01
      2.22748816e-01 3.29383880e-01 3.74407589e-01 6.25592411e-01</_>
    <_>
      8.29326957e-02 8.41346197e-03 0. 7.21153840e-02 1.20192304e-01
      1.09375000e-01 8.41346160e-02 1.05769232e-01 7.33173043e-02
      8.41346160e-02 8.41346160e-02 1.09375000e-01 0. 0. 0.
      6.61057681e-02 1.63461536e-01 4.19471145e-01 3.50961536e-01
      6.61057681e-02 2.76442289e-01 2.01923072e-01 1.68269232e-01
      3.53365362e-01 3.42548072e-01 2.40384609e-01 3.20913464e-01
      2.62019217e-01 1.57451928e-01 2.59615362e-01 3.61778826e-01
      6.38221145e-01</_>
    <_>
      5.67260943e-02 6.32090792e-02 0. 0. 1.16693676e-01 4.21393849e-02
      0. 0. 1.37763366e-01 1.58833057e-01 1.19935170e-01 7.94165283e-02
      2.59319283e-02 4.86223660e-02 6.96920604e-02 8.10372755e-02
      1.19935170e-01 1.58833057e-01 4.95948076e-01 2.25283623e-01
      3.37115079e-01 3.12803894e-01 1.89627230e-01 1.60453796e-01
      2.99837917e-01 1.84764981e-01 2.78768241e-01 0. 3.71150702e-01
      3.50081027e-01 3.20907593e-01 6.79092348e-01</_>
    <_>
      6.38930127e-02 0. 3.26894484e-02 7.72659704e-02 8.61812755e-02
      1.78306084e-02 1.27786025e-01 9.95542333e-02 9.21248123e-02
      8.61812755e-02 5.94353639e-02 6.68647811e-02 4.90341745e-02
      8.91530439e-02 0. 5.20059429e-02 1.73848420e-01 3.31352144e-01
      3.04606229e-01 1.90193161e-01 2.91233271e-01 1.93164930e-01
      2.19910845e-01 2.95690924e-01 1.93164930e-01 3.40267450e-01
      1.67904899e-01 3.37295681e-01 3.16493303e-01 1.78306088e-01
      2.91233271e-01 7.08766699e-01</_>
    <_>
      8.17995891e-02 2.65848674e-02 1.12474440e-02 9.61145163e-02
      7.77096078e-02 0. 7.15746433e-02 1.02249488e-01 8.58895704e-02
      4.90797535e-02 7.46421292e-02 8.38445798e-02 6.03271984e-02
      8.17995891e-02 1.22699384e-02 8.48670751e-02 2.15746418e-01
      2.51533747e-01 2.93456018e-01 2.39263803e-01 3.05725962e-01
      1.57464206e-01 1.69734150e-01 3.67075682e-01 2.41308793e-01
      2.77096123e-01 1.86094075e-01 2.81186104e-01 2.77096123e-01
      2.55623728e-01 1.95296526e-01 8.04703414e-01</_>
    <_>
      6.44202158e-02 9.91080306e-04 5.84737360e-02 8.91972259e-02
      6.64023757e-02 3.56788896e-02 9.91080254e-02 9.91080254e-02
      9.31615457e-02 8.72150660e-02 3.66699696e-02 6.93756193e-02
      6.24380559e-02 8.12685862e-02 0. 5.64915761e-02 2.13082254e-01
      3.00297320e-01 2.86422193e-01 2.00198233e-01 2.86422193e-01
      2.05153614e-01 1.94251731e-01 3.14172477e-01 1.93260640e-01
      3.37958395e-01 1.67492568e-01 3.45887005e-01 3.24083269e-01
      1.62537158e-01 2.58671939e-01 7.41328061e-01</_>
    <_>
      4.16666679e-02 0. 8.57843179e-03 9.19117630e-02 9.06862766e-02
      1.22549024e-03 7.59803951e-02 1.05392158e-01 9.06862766e-02
      5.63725494e-02 9.31372568e-02 7.84313753e-02 7.84313753e-02
      9.55882370e-02 1.47058824e-02 7.72058815e-02 1.42156869e-01
      2.73284316e-01 3.18627447e-01 2.65931368e-01 3.01470608e-01
      1.53186277e-01 1.92401960e-01 3.52941155e-01 2.13235304e-01
      3.02696079e-01 1.33578435e-01 2.81862736e-01 3.21078449e-01
      2.63480395e-01 2.26715684e-01 7.73284316e-01</_>
    <_>
      3.73395570e-02 1.16686113e-02 4.66744462e-03 9.33488905e-02
      9.33488905e-02 7.00116670e-03 6.30104989e-02 1.14352390e-01
      8.86814445e-02 2.80046668e-02 8.28471407e-02 9.10151675e-02
      8.51808637e-02 1.00350060e-01 2.10035015e-02 7.81796947e-02
